{"learner":{"attributes":{"best_iteration":"249","best_score":"0.06259243287054944","scikit_learn":"{\"_estimator_type\": \"regressor\"}"},"feature_names":[],"feature_types":[],"gradient_booster":{"model":{"cats":{"enc":[],"feature_segments":[],"sorted_idx":[]},"gbtree_model_param":{"num_parallel_tree":"1","num_trees":"350"},"iteration_indptr":[0,1,2,3,4,5,6,7,8,9,10,11,12,13,14,15,16,17,18,19,20,21,22,23,24,25,26,27,28,29,30,31,32,33,34,35,36,37,38,39,40,41,42,43,44,45,46,47,48,49,50,51,52,53,54,55,56,57,58,59,60,61,62,63,64,65,66,67,68,69,70,71,72,73,74,75,76,77,78,79,80,81,82,83,84,85,86,87,88,89,90,91,92,93,94,95,96,97,98,99,100,101,102,103,104,105,106,107,108,109,110,111,112,113,114,115,116,117,118,119,120,121,122,123,124,125,126,127,128,129,130,131,132,133,134,135,136,137,138,139,140,141,142,143,144,145,146,147,148,149,150,151,152,153,154,155,156,157,158,159,160,161,162,163,164,165,166,167,168,169,170,171,172,173,174,175,176,177,178,179,180,181,182,183,184,185,186,187,188,189,190,191,192,193,194,195,196,197,198,199,200,201,202,203,204,205,206,207,208,209,210,211,212,213,214,215,216,217,218,219,220,221,222,223,224,225,226,227,228,229,230,231,232,233,234,235,236,237,238,239,240,241,242,243,244,245,246,247,248,249,250,251,252,253,254,255,256,257,258,259,260,261,262,263,264,265,266,267,268,269,270,271,272,273,274,275,276,277,278,279,280,281,282,283,284,285,286,287,288,289,290,291,292,293,294,295,296,297,298,299,300,301,302,303,304,305,306,307,308,309,310,311,312,313,314,315,316,317,318,319,320,321,322,323,324,325,326,327,328,329,330,331,332,333,334,335,336,337,338,339,340,341,342,343,344,345,346,347,348,349,350],"tree_info":[0,0,0,0,0,0,0,0,0,0,0,0,0,0,0,0,0,0,0,0,0,0,0,0,0,0,0,0,0,0,0,0,0,0,0,0,0,0,0,0,0,0,0,0,0,0,0,0,0,0,0,0,0,0,0,0,0,0,0,0,0,0,0,0,0,0,0,0,0,0,0,0,0,0,0,0,0,0,0,0,0,0,0,0,0,0,0,0,0,0,0,0,0,0,0,0,0,0,0,0,0,0,0,0,0,0,0,0,0,0,0,0,0,0,0,0,0,0,0,0,0,0,0,0,0,0,0,0,0,0,0,0,0,0,0,0,0,0,0,0,0,0,0,0,0,0,0,0,0,0,0,0,0,0,0,0,0,0,0,0,0,0,0,0,0,0,0,0,0,0,0,0,0,0,0,0,0,0,0,0,0,0,0,0,0,0,0,0,0,0,0,0,0,0,0,0,0,0,0,0,0,0,0,0,0,0,0,0,0,0,0,0,0,0,0,0,0,0,0,0,0,0,0,0,0,0,0,0,0,0,0,0,0,0,0,0,0,0,0,0,0,0,0,0,0,0,0,0,0,0,0,0,0,0,0,0,0,0,0,0,0,0,0,0,0,0,0,0,0,0,0,0,0,0,0,0,0,0,0,0,0,0,0,0,0,0,0,0,0,0,0,0,0,0,0,0,0,0,0,0,0,0,0,0,0,0,0,0,0,0,0,0,0,0,0,0,0,0,0,0,0,0,0,0,0,0,0,0,0,0,0,0,0,0,0,0,0,0,0,0,0,0,0,0,0,0,0,0,0,0],"trees":[{"base_weights":[-5.38661E-4,-1.0181413E-1,1.3028608E-1,-1.3843818E-1,-2.4104558E-2,1.5598865E-1,7.801238E-2,-1.9052896E-3,-1.2756757E-1,-7.4953604E-3,-6.8248786E-2,1.3462618E-1,1.9218688E-1,7.320719E-2,1.5415353E-1,-9.68481E-2,-1.3908378E-3,2.0094442E-3,-1.0505538E-2,-3.699943E-2,-7.7965684E-2,1.3750994E-1,-7.282078E-4,6.8849046E-4,1.938488E-1,8.424092E-4,7.692566E-2,3.8069344E-4,2.1619017E-3,-9.032553E-2,-1.3725951E-3,2.0497134E-2,-2.6061773E-2,-6.9723395E-4,5.685014E-3,-7.9254096E-4,-1.5147291E-4,-4.7226746E-5,1.389893E-1,1.3188597E-2,-2.8197712E-4,4.787775E-4,1.9477421E-1,4.7957E-4,-2.285529E-2,1.0629648E-2,8.0440715E-2,-9.218556E-4,-4.287193E-4,7.497543E-4,1.202477E-4,-3.148846E-4,5.606437E-4,-1.9452139E-4,1.9630304E-4,2.45877E-4,-2.4658538E-4,1.9298877E-4,1.4084599E-3,4.615585E-5,1.9453815E-4,1.8440164E-3,2.415948E-3,-3.5262696E-4,1.9590877E-4,-3.641264E-4,3.2379184E-4,6.1740575E-4,9.4387477E-4],"categories":[],"categories_nodes":[],"categories_segments":[],"categories_sizes":[],"default_left":[0,0,0,0,0,0,0,0,0,0,0,0,0,0,0,0,0,0,0,0,0,0,0,0,0,0,0,0,0,0,0,0,0,0,0,0,0,0,0,0,0,0,0,0,0,0,0,0,0,0,0,0,0,0,0,0,0,0,0,0,0,0,0,0,0,0,0,0,0],"id":0,"left_children":[1,3,5,7,9,11,13,-1,15,17,19,21,23,25,27,29,-1,-1,31,33,35,37,39,-1,41,43,45,-1,-1,47,-1,49,51,-1,53,-1,-1,55,57,59,-1,-1,61,-1,63,65,67,-1,-1,-1,-1,-1,-1,-1,-1,-1,-1,-1,-1,-1,-1,-1,-1,-1,-1,-1,-1,-1,-1],"loss_changes":[1.3633584E1,1.6473656E0,5.910926E-1,1.9880056E-1,1.3659692E-1,2.0611191E-1,4.359579E-2,0E0,1.02921486E-1,8.807042E-2,1.2601256E-2,7.50432E-2,8.996487E-3,3.841448E-2,4.9381554E-2,1.2115598E-2,0E0,0E0,6.612493E-2,1.9951638E-2,1.8751025E-3,3.8264036E-2,2.2833268E-3,0E0,5.1288605E-3,1.0028131E-2,3.0837536E-2,0E0,0E0,3.3738613E-3,0E0,2.0330194E-2,4.2321607E-2,0E0,2.8356656E-3,0E0,0E0,2.42519E-3,3.861618E-2,1.2505642E-4,0E0,0E0,6.928444E-3,0E0,3.8507087E-3,9.364195E-3,2.7816534E-2,0E0,0E0,0E0,0E0,0E0,0E0,0E0,0E0,0E0,0E0,0E0,0E0,0E0,0E0,0E0,0E0,0E0,0E0,0E0,0E0,0E0,0E0],"parents":[2147483647,0,0,1,1,2,2,3,3,4,4,5,5,6,6,8,8,9,9,10,10,11,11,12,12,13,13,14,14,15,15,18,18,19,19,20,20,21,21,22,22,24,24,25,25,26,26,29,29,31,31,32,32,34,34,37,37,38,38,39,39,42,42,44,44,45,45,46,46],"right_children":[2,4,6,8,10,12,14,-1,16,18,20,22,24,26,28,30,-1,-1,32,34,36,38,40,-1,42,44,46,-1,-1,48,-1,50,52,-1,54,-1,-1,56,58,60,-1,-1,62,-1,64,66,68,-1,-1,-1,-1,-1,-1,-1,-1,-1,-1,-1,-1,-1,-1,-1,-1,-1,-1,-1,-1,-1,-1],"split_conditions":[3.8550816E-2,8.428137E-2,-9.577487E-2,2.6199464E-2,-4.5443103E-2,1.4214435E-1,6.86289E-2,-1.9052896E-3,1.2879342E-2,-2.1028284E-2,3.991384E-3,2.2708679E-2,1.0362847E-2,4.823911E-3,9.206284E-2,-1.8876458E-2,-1.3908378E-3,2.0094442E-3,-5.999157E-2,8.131154E-3,8.297047E-2,2.2939015E-3,7.722577E-2,6.8849046E-4,1.4436245E-4,7.0299484E-2,1.1300817E-3,3.8069344E-4,2.1619017E-3,-4.6919454E-3,-1.3725951E-3,1.1442754E-2,6.86039E-2,-6.9723395E-4,3.276653E-3,-7.9254096E-4,-1.5147291E-4,1.1063273E-1,9.8188594E-2,1.0898067E-1,-2.8197712E-4,4.787775E-4,-1.03355005E-1,4.7957E-4,1.0319354E-1,-8.856139E-2,8.981851E-2,-9.218556E-4,-4.287193E-4,7.497543E-4,1.202477E-4,-3.148846E-4,5.606437E-4,-1.9452139E-4,1.9630304E-4,2.45877E-4,-2.4658538E-4,1.9298877E-4,1.4084599E-3,4.615585E-5,1.9453815E-4,1.8440164E-3,2.415948E-3,-3.5262696E-4,1.9590877E-4,-3.641264E-4,3.2379184E-4,6.1740575E-4,9.4387477E-4],"split_indices":[132,0,103,0,87,101,157,0,183,98,134,125,125,100,64,96,0,0,106,151,65,137,65,0,170,65,154,0,0,98,0,125,67,0,100,0,0,64,173,64,0,0,87,0,64,87,65,0,0,0,0,0,0,0,0,0,0,0,0,0,0,0,0,0,0,0,0,0,0],"split_type":[0,0,0,0,0,0,0,0,0,0,0,0,0,0,0,0,0,0,0,0,0,0,0,0,0,0,0,0,0,0,0,0,0,0,0,0,0,0,0,0,0,0,0,0,0,0,0,0,0,0,0,0,0,0,0,0,0,0,0,0,0,0,0,0,0,0,0,0,0],"sum_hessian":[1.027E3,5.79E2,4.48E2,3.93E2,1.86E2,2.99E2,1.49E2,6.5E1,3.28E2,1.36E2,5E1,1.91E2,1.08E2,1.42E2,7E0,9.2E1,2.36E2,1E0,1.35E2,1.3E1,3.7E1,1.87E2,4E0,2E0,1.06E2,7E0,1.35E2,3E0,4E0,8.2E1,1E1,4.5E1,9E1,7E0,6E0,3.6E1,1E0,2E0,1.85E2,3E0,1E0,1E0,1.05E2,2E0,5E0,7E0,1.28E2,7.8E1,4E0,5E0,4E1,8.5E1,5E0,2E0,4E0,1E0,1E0,3E0,1.82E2,2E0,1E0,9E1,1.5E1,4E0,1E0,2E0,5E0,5.7E1,7.1E1],"tree_param":{"num_deleted":"0","num_feature":"192","num_nodes":"69","size_leaf_vector":"1"}},{"base_weights":[1.495566E-3,-1.1654695E-1,1.1342957E-1,-1.4839795E-1,-5.6405786E-2,4.05639E-2,1.519871E-1,-1.8900704E-3,-1.3513763E-1,-7.9980396E-2,1.5566101E-3,1.4715023E-2,5.8958236E-2,1.3213146E-1,1.9596459E-1,-1.3650905E-1,-4.1459434E-4,-8.170043E-2,6.4931944E-4,7.896475E-4,-4.926498E-3,-1.4710704E-2,3.7118655E-2,6.971567E-2,2.3177058E-2,1.413789E-1,8.425036E-2,2.4046296E-1,1.8036057E-1,-1.4337873E-3,-1.2345881E-3,-4.262396E-2,-8.518887E-2,1.702067E-2,-2.2626912E-2,-3.987088E-2,7.2510596E-3,5.8296225E-3,6.066513E-2,1.1443257E-3,7.8271195E-2,5.4530516E-2,-1.2371056E-2,-1.3812169E-2,1.4303295E-1,5.7097048E-2,1.8912064E-1,2.9432266E-3,1.809687E-1,1.4664122E-1,2.0163327E-1,1.391176E-4,-6.301495E-4,-3.097853E-4,-8.5899344E-4,2.7829241E-5,5.452417E-4,-2.9095312E-4,7.277574E-4,-1.7123154E-4,-5.566098E-4,4.4459896E-4,-2.3851724E-4,2.7605135E-4,-3.8554202E-4,2.8906314E-4,8.355375E-4,-2.593855E-4,4.8253275E-4,6.897469E-4,1.3568285E-3,1.0495287E-4,7.1095076E-4,-3.8860572E-4,3.7784284E-4,9.841248E-6,-2.1702379E-4,1.8357933E-3,1.3369792E-3,3.281334E-4,1.3191743E-3,4.8810832E-4,2.021919E-3,1.045773E-3,2.0106751E-3,1.4892622E-3,3.4475437E-4,2.0390025E-3,4.8675932E-4],"categories":[],"categories_nodes":[],"categories_segments":[],"categories_sizes":[],"default_left":[0,0,0,0,0,0,0,0,0,0,0,0,0,0,0,0,0,0,0,0,0,0,0,0,0,0,0,0,0,0,0,0,0,0,0,0,0,0,0,0,0,0,0,0,0,0,0,0,0,0,0,0,0,0,0,0,0,0,0,0,0,0,0,0,0,0,0,0,0,0,0,0,0,0,0,0,0,0,0,0,0,0,0,0,0,0,0,0,0],"id":1,"left_children":[1,3,5,7,9,11,13,-1,15,17,19,21,23,25,27,29,-1,31,-1,-1,33,35,37,39,41,43,45,47,49,-1,-1,51,53,55,57,59,61,63,65,67,69,71,73,75,77,79,81,-1,83,85,87,-1,-1,-1,-1,-1,-1,-1,-1,-1,-1,-1,-1,-1,-1,-1,-1,-1,-1,-1,-1,-1,-1,-1,-1,-1,-1,-1,-1,-1,-1,-1,-1,-1,-1,-1,-1,-1,-1],"loss_changes":[1.3437598E1,9.3982935E-1,1.4604044E0,1.483903E-1,2.3651874E-1,8.5668534E-2,2.718687E-1,0E0,2.6072979E-2,3.5963237E-2,2.5983132E-2,5.1307756E-2,3.9185047E-2,9.34701E-2,2.8842688E-2,4.0841103E-3,0E0,1.2999475E-2,0E0,0E0,1.9031877E-2,1.907621E-2,3.2063186E-2,4.7430158E-2,2.9653065E-2,5.2800894E-2,1.0595235E-1,2.364111E-2,2.8533459E-2,0E0,0E0,1.4710484E-2,1.6141534E-3,1.1595499E-2,1.8779203E-2,4.793931E-3,2.3049116E-2,2.0393904E-2,1.5757658E-2,1.4010078E-2,2.9069722E-2,9.465776E-3,1.8740002E-2,3.7159544E-4,4.9642086E-2,5.7446502E-2,4.8030913E-3,0E0,4.6819448E-4,3.8362145E-3,6.3723326E-3,0E0,0E0,0E0,0E0,0E0,0E0,0E0,0E0,0E0,0E0,0E0,0E0,0E0,0E0,0E0,0E0,0E0,0E0,0E0,0E0,0E0,0E0,0E0,0E0,0E0,0E0,0E0,0E0,0E0,0E0,0E0,0E0,0E0,0E0,0E0,0E0,0E0,0E0],"parents":[2147483647,0,0,1,1,2,2,3,3,4,4,5,5,6,6,8,8,9,9,10,10,11,11,12,12,13,13,14,14,15,15,17,17,20,20,21,21,22,22,23,23,24,24,25,25,26,26,27,27,28,28,31,31,32,32,33,33,34,34,35,35,36,36,37,37,38,38,39,39,40,40,41,41,42,42,43,43,44,44,45,45,46,46,48,48,49,49,50,50],"right_children":[2,4,6,8,10,12,14,-1,16,18,20,22,24,26,28,30,-1,32,-1,-1,34,36,38,40,42,44,46,48,50,-1,-1,52,54,56,58,60,62,64,66,68,70,72,74,76,78,80,82,-1,84,86,88,-1,-1,-1,-1,-1,-1,-1,-1,-1,-1,-1,-1,-1,-1,-1,-1,-1,-1,-1,-1,-1,-1,-1,-1,-1,-1,-1,-1,-1,-1,-1,-1,-1,-1,-1,-1,-1,-1],"split_conditions":[1.5028676E-1,5.9379324E-2,7.9164535E-2,2.6199464E-2,-2.8585263E-2,4.536224E-2,1.4306177E-1,-1.8900704E-3,-1.5145348E-2,4.15001E-2,4.6456464E-2,5.6866124E-2,1.2029393E-2,-5.6652043E-2,3.6053285E-3,6.2129457E-2,-4.1459434E-4,6.120829E-3,6.4931944E-4,7.896475E-4,5.786942E-2,-4.6757035E-2,-2.6526792E-2,7.0360377E-3,1.1904414E-2,-6.1369747E-2,5.007997E-2,7.199477E-2,1.8939463E-2,-1.4337873E-3,-1.2345881E-3,-2.4917615E-3,2.1548495E-3,-2.0759117E-2,6.1662562E-2,-8.357011E-2,3.0775942E-2,9.217968E-2,1.2087272E-1,-4.979632E-2,8.401674E-2,8.832281E-3,2.8375827E-2,1.3332903E-1,5.2846685E-2,-5.2903324E-2,-1.139784E-1,2.9432266E-3,4.2817183E-2,1.870348E-2,4.9997564E-2,1.391176E-4,-6.301495E-4,-3.097853E-4,-8.5899344E-4,2.7829241E-5,5.452417E-4,-2.9095312E-4,7.277574E-4,-1.7123154E-4,-5.566098E-4,4.4459896E-4,-2.3851724E-4,2.7605135E-4,-3.8554202E-4,2.8906314E-4,8.355375E-4,-2.593855E-4,4.8253275E-4,6.897469E-4,1.3568285E-3,1.0495287E-4,7.1095076E-4,-3.8860572E-4,3.7784284E-4,9.841248E-6,-2.1702379E-4,1.8357933E-3,1.3369792E-3,3.281334E-4,1.3191743E-3,4.8810832E-4,2.021919E-3,1.045773E-3,2.0106751E-3,1.4892622E-3,3.4475437E-4,2.0390025E-3,4.8675932E-4],"split_indices":[180,0,161,0,114,162,101,0,114,71,182,143,189,80,144,157,0,172,0,0,95,69,114,97,100,85,150,90,125,0,0,73,167,114,78,94,190,66,127,76,136,98,73,64,155,120,68,0,98,125,71,0,0,0,0,0,0,0,0,0,0,0,0,0,0,0,0,0,0,0,0,0,0,0,0,0,0,0,0,0,0,0,0,0,0,0,0,0,0],"split_type":[0,0,0,0,0,0,0,0,0,0,0,0,0,0,0,0,0,0,0,0,0,0,0,0,0,0,0,0,0,0,0,0,0,0,0,0,0,0,0,0,0,0,0,0,0,0,0,0,0,0,0,0,0,0,0,0,0,0,0,0,0,0,0,0,0,0,0,0,0,0,0,0,0,0,0,0,0,0,0,0,0,0,0,0,0,0,0,0,0],"sum_hessian":[1.015E3,4.94E2,5.21E2,3.22E2,1.72E2,1.81E2,3.4E2,7.6E1,2.46E2,1.22E2,5E1,7.6E1,1.05E2,2.37E2,1.03E2,2.42E2,4E0,1.21E2,1E0,3E0,4.7E1,3.3E1,4.3E1,8E1,2.5E1,1.97E2,4E1,2.3E1,8E1,1.52E2,9E1,1.1E1,1.1E2,2.1E1,2.6E1,1.5E1,1.8E1,1.9E1,2.4E1,9E0,7.1E1,1.3E1,1.2E1,2E0,1.95E2,3.3E1,7E0,1E1,1.3E1,3.4E1,4.6E1,3E0,8E0,2E0,1.08E2,1.6E1,5E0,2.5E1,1E0,7E0,8E0,8E0,1E1,1.3E1,6E0,1.1E1,1.3E1,6E0,3E0,6.3E1,8E0,4E0,9E0,8E0,4E0,1E0,1E0,3.3E1,1.62E2,2.6E1,7E0,1E0,6E0,4E0,9E0,3.3E1,1E0,4.5E1,1E0],"tree_param":{"num_deleted":"0","num_feature":"192","num_nodes":"89","size_leaf_vector":"1"}},{"base_weights":[-2.7612683E-3,-1.14918314E-1,1.2094716E-1,-1.4525199E-1,-5.289318E-2,5.2492715E-2,1.5676138E-1,-1.8688252E-3,-1.3291587E-1,-7.77518E-2,5.3265295E-3,1.459229E-2,7.4011125E-2,1.3581653E-1,1.9618422E-1,-1.3602583E-1,-9.0968385E-2,-2.4986474E-2,-8.381568E-2,3.9599895E-2,-2.9144114E-2,-1.6290722E-2,3.6491346E-2,1.3777266E-1,6.5084E-2,1.7504174E-1,1.2624961E-1,2.4357677E-1,1.8303439E-1,-2.1333217E-4,-1.3639484E-1,-2.8387283E-4,-9.5807135E-2,1.4565217E-2,-4.8577992E-4,-2.9796429E-2,-8.506342E-2,1.9992578E-3,2.574406E-2,-6.4679064E-2,1.40996035E-2,-4.1655388E-2,2.2084313E-2,1.2546761E-1,2.144845E-2,1.6803805E-3,3.5232373E-2,7.120932E-2,-9.664293E-3,8.2151574E-4,1.8355377E-1,9.765513E-2,1.4302091E-1,2.568479E-3,8.275778E-4,7.8258826E-4,1.8584473E-1,-1.3662049E-3,-3.9766333E-4,-9.95965E-4,-4.1135208E-4,2.6080135E-4,-2.1504685E-4,-1.8808618E-5,-3.8474664E-4,-1.464206E-4,-8.559465E-4,1.0148428E-4,7.60381E-4,-6.940045E-4,7.102117E-6,6.149251E-4,-1.3796412E-4,-5.524971E-4,-1.6284164E-4,5.9686624E-4,-7.9293866E-5,3.125514E-4,1.4120694E-3,-6.7912904E-4,2.9669635E-4,4.6908963E-4,1.0129809E-6,9.046735E-4,4.2739886E-4,1.3599923E-4,-3.632849E-4,2.4586334E-3,1.6142088E-3,5.813918E-5,1.0674235E-3,1.3707014E-3,2.3462262E-3,1.8694865E-3,4.7109363E-4],"categories":[],"categories_nodes":[],"categories_segments":[],"categories_sizes":[],"default_left":[0,0,0,0,0,0,0,0,0,0,0,0,0,0,0,0,0,0,0,0,0,0,0,0,0,0,0,0,0,0,0,0,0,0,0,0,0,0,0,0,0,0,0,0,0,0,0,0,0,0,0,0,0,0,0,0,0,0,0,0,0,0,0,0,0,0,0,0,0,0,0,0,0,0,0,0,0,0,0,0,0,0,0,0,0,0,0,0,0,0,0,0,0,0,0],"id":2,"left_children":[1,3,5,7,9,11,13,-1,15,17,19,21,23,25,27,29,31,33,35,37,39,41,43,45,47,49,51,53,55,-1,57,-1,59,61,-1,63,65,-1,67,69,71,73,75,77,79,-1,81,83,85,-1,87,89,91,-1,-1,-1,93,-1,-1,-1,-1,-1,-1,-1,-1,-1,-1,-1,-1,-1,-1,-1,-1,-1,-1,-1,-1,-1,-1,-1,-1,-1,-1,-1,-1,-1,-1,-1,-1,-1,-1,-1,-1,-1,-1],"loss_changes":[1.3888671E1,9.800787E-1,1.1587529E0,1.5593338E-1,2.5223765E-1,1.3348693E-1,2.309742E-1,0E0,2.350092E-2,3.694117E-2,6.376962E-2,4.1849315E-2,5.0799906E-2,5.5580616E-2,2.1476746E-2,7.840157E-3,3.9422214E-3,1.3770733E-2,4.8123E-3,5.4832213E-2,4.240185E-2,2.6227549E-2,4.5493506E-2,3.132069E-2,4.3726712E-2,1.49668455E-2,6.755996E-2,2.1428823E-2,1.1073589E-2,0E0,8.34465E-5,0E0,4.6521425E-5,3.0528966E-3,0E0,8.9666597E-4,2.7121902E-3,0E0,1.9621883E-2,4.680209E-3,1.803533E-2,4.618777E-3,1.2887709E-2,3.0007586E-3,2.5523957E-2,0E0,1.636093E-3,4.383251E-2,5.456638E-3,0E0,7.2015524E-3,5.4461777E-2,2.5075912E-2,0E0,0E0,0E0,4.057884E-3,0E0,0E0,0E0,0E0,0E0,0E0,0E0,0E0,0E0,0E0,0E0,0E0,0E0,0E0,0E0,0E0,0E0,0E0,0E0,0E0,0E0,0E0,0E0,0E0,0E0,0E0,0E0,0E0,0E0,0E0,0E0,0E0,0E0,0E0,0E0,0E0,0E0,0E0],"parents":[2147483647,0,0,1,1,2,2,3,3,4,4,5,5,6,6,8,8,9,9,10,10,11,11,12,12,13,13,14,14,15,15,16,16,17,17,18,18,19,19,20,20,21,21,22,22,23,23,24,24,25,25,26,26,27,27,28,28,30,30,32,32,33,33,35,35,36,36,38,38,39,39,40,40,41,41,42,42,43,43,44,44,46,46,47,47,48,48,50,50,51,51,52,52,56,56],"right_children":[2,4,6,8,10,12,14,-1,16,18,20,22,24,26,28,30,32,34,36,38,40,42,44,46,48,50,52,54,56,-1,58,-1,60,62,-1,64,66,-1,68,70,72,74,76,78,80,-1,82,84,86,-1,88,90,92,-1,-1,-1,94,-1,-1,-1,-1,-1,-1,-1,-1,-1,-1,-1,-1,-1,-1,-1,-1,-1,-1,-1,-1,-1,-1,-1,-1,-1,-1,-1,-1,-1,-1,-1,-1,-1,-1,-1,-1,-1,-1],"split_conditions":[8.4808536E-2,5.9379324E-2,7.957815E-2,2.6199464E-2,1.0887608E-2,3.8550816E-2,1.4350665E-1,-1.8688252E-3,1.8609375E-2,-8.540363E-2,7.519409E-3,2.7401466E-3,-6.1730444E-2,-4.116091E-2,1.2853701E-2,-7.900506E-2,3.4033366E-2,3.39599E-2,2.3035705E-3,-2.1028284E-2,8.309765E-3,3.8725216E-2,3.2168254E-3,-9.4714224E-2,1.2053324E-1,9.9698894E-2,2.5829257E-2,4.15001E-2,8.7196425E-2,-2.1333217E-4,1.015678E-1,-2.8387283E-4,2.3505334E-2,-3.4785856E-2,-4.8577992E-4,6.591901E-2,1.2532808E-4,1.9992578E-3,6.346382E-3,-4.769426E-2,6.763559E-3,-2.6033532E-2,7.312873E-2,9.1283605E-2,1.0691172E-2,1.6803805E-3,1.11875504E-1,-1.4226672E-1,2.3507163E-2,8.2151574E-4,1.3416167E-3,-6.968002E-2,2.9552974E-2,2.568479E-3,8.275778E-4,7.8258826E-4,3.022606E-2,-1.3662049E-3,-3.9766333E-4,-9.95965E-4,-4.1135208E-4,2.6080135E-4,-2.1504685E-4,-1.8808618E-5,-3.8474664E-4,-1.464206E-4,-8.559465E-4,1.0148428E-4,7.60381E-4,-6.940045E-4,7.102117E-6,6.149251E-4,-1.3796412E-4,-5.524971E-4,-1.6284164E-4,5.9686624E-4,-7.9293866E-5,3.125514E-4,1.4120694E-3,-6.7912904E-4,2.9669635E-4,4.6908963E-4,1.0129809E-6,9.046735E-4,4.2739886E-4,1.3599923E-4,-3.632849E-4,2.4586334E-3,1.6142088E-3,5.813918E-5,1.0674235E-3,1.3707014E-3,2.3462262E-3,1.8694865E-3,4.7109363E-4],"split_indices":[64,0,161,0,164,132,101,0,132,116,131,178,91,91,137,102,78,172,131,98,100,167,178,72,70,173,98,71,83,0,66,0,73,76,0,64,151,0,131,106,186,114,78,66,73,0,64,116,96,0,178,80,188,0,0,0,71,0,0,0,0,0,0,0,0,0,0,0,0,0,0,0,0,0,0,0,0,0,0,0,0,0,0,0,0,0,0,0,0,0,0,0,0,0,0],"split_type":[0,0,0,0,0,0,0,0,0,0,0,0,0,0,0,0,0,0,0,0,0,0,0,0,0,0,0,0,0,0,0,0,0,0,0,0,0,0,0,0,0,0,0,0,0,0,0,0,0,0,0,0,0,0,0,0,0,0,0,0,0,0,0,0,0,0,0,0,0,0,0,0,0,0,0,0,0,0,0,0,0,0,0,0,0,0,0,0,0,0,0,0,0,0,0],"sum_hessian":[9.99E2,5.24E2,4.75E2,3.51E2,1.73E2,1.64E2,3.11E2,7.7E1,2.74E2,1.21E2,5.2E1,6E1,1.04E2,2.06E2,1.05E2,2.53E2,2.1E1,1.3E1,1.08E2,2.6E1,2.6E1,2.5E1,3.5E1,1.1E1,9.3E1,3.7E1,1.69E2,1.9E1,8.6E1,1E0,2.52E2,2E0,1.9E1,5E0,8E0,3E0,1.05E2,1E0,2.5E1,1.4E1,1.2E1,1.5E1,1E1,4E0,3.1E1,8E0,3E0,8.6E1,7E0,4E0,3.3E1,6.5E1,1.04E2,1.7E1,2E0,3E0,8.3E1,2.51E2,1E0,1.7E1,2E0,4E0,1E0,1E0,2E0,1E0,1.04E2,2E1,5E0,1.3E1,1E0,4E0,8E0,9E0,6E0,4E0,6E0,1E0,3E0,2E0,2.9E1,2E0,1E0,5E1,3.6E1,4E0,3E0,6E0,2.7E1,6E0,5.9E1,1E2,4E0,8.2E1,1E0],"tree_param":{"num_deleted":"0","num_feature":"192","num_nodes":"95","size_leaf_vector":"1"}},{"base_weights":[5.717357E-4,1.2222234E-1,-1.0581906E-1,7.3198624E-2,1.6822004E-1,-1.3608956E-1,-2.1814212E-2,1.0660889E-1,4.8215754E-2,1.4153333E-1,1.94411E-1,-1.6613787E-1,-1.18299E-1,-4.383426E-3,-5.729779E-2,1.378968E-1,7.682317E-2,1.2536496E-1,4.0546414E-2,1.4781947E-1,6.123343E-2,2.4365447E-1,1.80156E-1,-1.849852E-3,-1.4636874E-3,-9.0368773E-4,-1.2672947E-1,-8.917148E-3,1.0778862E-1,-6.315841E-2,-4.7702864E-3,7.4745364E-2,1.6713674E-1,5.9903137E-2,1.8187149E-1,-1.8878803E-2,1.561016E-1,5.3561978E-2,8.653066E-3,1.4180669E-1,2.3642362E-3,-4.991057E-4,9.147772E-2,1.8302378E-1,2.9408573E-3,7.949856E-4,1.8244956E-1,-2.3153641E-4,-1.2766825E-1,-6.5321445E-2,-1.7652799E-3,1.9892615E-3,1.1100729E-2,-3.7263077E-2,-6.875255E-2,1.6616471E-2,-3.1695867E-4,3.882593E-5,9.6250634E-4,1.0248508E-3,2.0597815E-3,7.98218E-4,2.8025918E-4,3.0643205E-4,2.3623416E-3,-3.836687E-4,1.0048665E-4,1.6988909E-3,6.730107E-4,4.7125E-4,1.8017574E-3,-3.4594216E-4,2.7553595E-4,6.4906356E-4,1.470476E-3,9.861931E-4,1.717247E-4,1.2544576E-3,2.2268097E-3,1.8745057E-3,1.263097E-3,-1.308927E-3,-1.0155092E-3,7.0665774E-6,-7.199492E-4,-3.593249E-4,6.9216934E-5,2.9126933E-4,-1.247584E-4,-6.1466626E-4,1.44089E-4,-1.6520082E-4,-7.1417546E-4,-1.4482424E-4,3.1810242E-4],"categories":[],"categories_nodes":[],"categories_segments":[],"categories_sizes":[],"default_left":[0,0,0,0,0,0,0,0,0,0,0,0,0,0,0,0,0,0,0,0,0,0,0,0,0,0,0,0,0,0,0,0,0,0,0,0,0,0,0,0,0,0,0,0,0,0,0,0,0,0,0,0,0,0,0,0,0,0,0,0,0,0,0,0,0,0,0,0,0,0,0,0,0,0,0,0,0,0,0,0,0,0,0,0,0,0,0,0,0,0,0,0,0,0,0],"id":3,"left_children":[1,3,5,7,9,11,13,15,17,19,21,23,25,27,29,31,33,35,37,39,41,43,45,-1,-1,-1,47,49,51,53,55,57,59,61,63,65,67,69,71,73,-1,-1,75,77,-1,-1,79,-1,81,83,85,-1,87,89,91,93,-1,-1,-1,-1,-1,-1,-1,-1,-1,-1,-1,-1,-1,-1,-1,-1,-1,-1,-1,-1,-1,-1,-1,-1,-1,-1,-1,-1,-1,-1,-1,-1,-1,-1,-1,-1,-1,-1,-1],"loss_changes":[1.3537851E1,1.0881157E0,1.4159517E0,1.9351459E-1,1.4792109E-1,1.995225E-1,9.1906324E-2,8.353174E-2,7.656923E-2,5.5560112E-2,4.3147564E-2,2.8813362E-2,5.0004005E-2,5.2325413E-2,1.47830695E-2,7.614142E-2,8.508605E-2,5.614981E-2,5.2255467E-2,2.9338598E-2,4.154189E-2,2.261734E-2,8.581638E-3,0E0,0E0,0E0,1.6296148E-2,3.9417505E-2,3.3039354E-2,3.8119853E-3,3.9817784E-3,2.5532983E-2,5.9247434E-2,2.8240591E-2,5.0309226E-2,2.0767571E-3,8.096695E-4,6.4860106E-2,3.2014262E-2,3.5997868E-2,0E0,0E0,3.0823871E-3,4.0329695E-3,0E0,0E0,3.5567284E-3,0E0,3.2138824E-3,4.897885E-3,2.6367962E-2,0E0,1.6383714E-3,1.3392121E-2,3.692165E-3,2.3507276E-3,0E0,0E0,0E0,0E0,0E0,0E0,0E0,0E0,0E0,0E0,0E0,0E0,0E0,0E0,0E0,0E0,0E0,0E0,0E0,0E0,0E0,0E0,0E0,0E0,0E0,0E0,0E0,0E0,0E0,0E0,0E0,0E0,0E0,0E0,0E0,0E0,0E0,0E0,0E0],"parents":[2147483647,0,0,1,1,2,2,3,3,4,4,5,5,6,6,7,7,8,8,9,9,10,10,11,11,12,12,13,13,14,14,15,15,16,16,17,17,18,18,19,19,20,20,21,21,22,22,26,26,27,27,28,28,29,29,30,30,31,31,32,32,33,33,34,34,35,35,36,36,37,37,38,38,39,39,42,42,43,43,46,46,48,48,49,49,50,50,52,52,53,53,54,54,55,55],"right_children":[2,4,6,8,10,12,14,16,18,20,22,24,26,28,30,32,34,36,38,40,42,44,46,-1,-1,-1,48,50,52,54,56,58,60,62,64,66,68,70,72,74,-1,-1,76,78,-1,-1,80,-1,82,84,86,-1,88,90,92,94,-1,-1,-1,-1,-1,-1,-1,-1,-1,-1,-1,-1,-1,-1,-1,-1,-1,-1,-1,-1,-1,-1,-1,-1,-1,-1,-1,-1,-1,-1,-1,-1,-1,-1,-1,-1,-1,-1,-1],"split_conditions":[-6.0943484E-2,7.453425E-2,8.428137E-2,-2.6723698E-2,1.4214435E-1,2.7847487E-2,1.7543316E-2,3.25609E-3,-6.1730444E-2,7.816558E-2,6.4357415E-2,2.6199464E-2,1.9141156E-2,1.6660089E-2,-2.6950132E-2,9.1495365E-4,-4.975015E-2,2.2293627E-3,-6.015227E-2,-1.4416257E-1,-3.4016334E-2,-3.2234397E-2,6.462058E-2,-1.849852E-3,-1.4636874E-3,-9.0368773E-4,-2.9669762E-2,3.9157234E-3,6.606223E-2,-4.219732E-2,-3.4281015E-2,-2.5860786E-2,-7.709217E-2,-5.579873E-2,6.712557E-3,1.1415367E-1,7.007326E-2,-1.03766635E-1,-4.8949374E-3,5.3978488E-2,2.3642362E-3,-4.991057E-4,1.2119718E-1,7.3582456E-2,2.9408573E-3,7.949856E-4,-8.093993E-2,-2.3153641E-4,4.2618573E-2,-3.549324E-2,-8.961436E-2,1.9892615E-3,6.998338E-2,5.6556802E-2,2.3035705E-3,-4.4827923E-2,-3.1695867E-4,3.882593E-5,9.6250634E-4,1.0248508E-3,2.0597815E-3,7.98218E-4,2.8025918E-4,3.0643205E-4,2.3623416E-3,-3.836687E-4,1.0048665E-4,1.6988909E-3,6.730107E-4,4.7125E-4,1.8017574E-3,-3.4594216E-4,2.7553595E-4,6.4906356E-4,1.470476E-3,9.861931E-4,1.717247E-4,1.2544576E-3,2.2268097E-3,1.8745057E-3,1.263097E-3,-1.308927E-3,-1.0155092E-3,7.0665774E-6,-7.199492E-4,-3.593249E-4,6.9216934E-5,2.9126933E-4,-1.247584E-4,-6.1466626E-4,1.44089E-4,-1.6520082E-4,-7.1417546E-4,-1.4482424E-4,3.1810242E-4],"split_indices":[103,117,0,74,101,0,81,171,91,182,89,0,165,81,114,171,80,171,68,105,86,123,89,0,0,0,107,151,64,77,68,114,106,80,131,64,140,104,109,124,0,0,64,95,0,0,106,0,82,86,72,0,64,74,131,68,0,0,0,0,0,0,0,0,0,0,0,0,0,0,0,0,0,0,0,0,0,0,0,0,0,0,0,0,0,0,0,0,0,0,0,0,0,0,0],"split_type":[0,0,0,0,0,0,0,0,0,0,0,0,0,0,0,0,0,0,0,0,0,0,0,0,0,0,0,0,0,0,0,0,0,0,0,0,0,0,0,0,0,0,0,0,0,0,0,0,0,0,0,0,0,0,0,0,0,0,0,0,0,0,0,0,0,0,0,0,0,0,0,0,0,0,0,0,0,0,0,0,0,0,0,0,0,0,0,0,0,0,0,0,0,0,0],"sum_hessian":[1.044E3,4.87E2,5.57E2,2.37E2,2.5E2,4.09E2,1.48E2,1E2,1.37E2,1.27E2,1.23E2,1.49E2,2.6E2,1E2,4.8E1,4.7E1,5.3E1,1.1E1,1.26E2,1.17E2,1E1,2.4E1,9.9E1,7.2E1,7.7E1,6.3E1,1.97E2,9.7E1,3E0,4.3E1,5E0,1.6E1,3.1E1,4.7E1,6E0,2E0,9E0,8.9E1,3.7E1,1.12E2,5E0,2E0,8E0,1.3E1,1.1E1,3E0,9.6E1,2E0,1.95E2,1E1,8.7E1,1E0,2E0,9E0,3.4E1,3E0,2E0,4E0,1.2E1,1.3E1,1.8E1,2.8E1,1.9E1,2E0,4E0,1E0,1E0,7E0,2E0,8.6E1,3E0,1.1E1,2.6E1,8E0,1.04E2,7E0,1E0,7E0,6E0,8.6E1,1E1,1.7E2,2.5E1,1E0,9E0,1.7E1,7E1,1E0,1E0,6E0,3E0,2E0,3.2E1,1E0,2E0],"tree_param":{"num_deleted":"0","num_feature":"192","num_nodes":"95","size_leaf_vector":"1"}},{"base_weights":[-1.7867374E-3,-1.1152403E-1,1.1275375E-1,-1.4220472E-1,-5.1425006E-2,4.9104735E-2,1.560156E-1,-1.8349482E-3,-1.3091816E-1,-8.044327E-2,-3.998166E-3,1.3921429E-2,7.1053624E-2,1.6371225E-1,7.567616E-2,-1.3754141E-3,-1.0583881E-1,-3.865904E-2,-8.3751105E-2,1.9793152E-3,-9.878477E-3,8.8700026E-2,4.380751E-3,1.9492424E-3,6.644764E-2,1.4675067E-1,1.9141868E-1,5.4482445E-3,8.388558E-2,-4.2142536E-4,-1.09505065E-1,1.9591495E-4,-4.7308154E-2,-2.7223254E-4,-8.460943E-2,4.394858E-2,-1.3929365E-2,3.3873736E-3,1.5627268E-3,4.0577576E-2,-6.685799E-3,7.5547114E-2,1.2663805E-2,1.3985519E-1,2.2761045E-1,1.0613485E-3,1.9573323E-1,4.1191027E-4,-2.0196358E-2,5.9960444E-2,1.1975688E-3,-2.764971E-4,-1.1193472E-3,-5.670186E-4,-9.620125E-5,-3.2655263E-4,-8.53365E-4,-1.07186286E-4,8.396626E-4,-2.4072983E-4,1.3330605E-4,-4.6550974E-4,2.7509703E-4,5.6349667E-4,2.270465E-5,-3.225667E-4,1.2113797E-4,9.4931107E-4,4.167484E-4,9.170824E-4,-7.888792E-5,1.4514425E-3,5.405568E-4,2.3984334E-3,4.6524292E-4,9.606303E-4,1.9796342E-3,-2.498348E-4,-5.311057E-5,3.2334134E-4,1.1979676E-3],"categories":[],"categories_nodes":[],"categories_segments":[],"categories_sizes":[],"default_left":[0,0,0,0,0,0,0,0,0,0,0,0,0,0,0,0,0,0,0,0,0,0,0,0,0,0,0,0,0,0,0,0,0,0,0,0,0,0,0,0,0,0,0,0,0,0,0,0,0,0,0,0,0,0,0,0,0,0,0,0,0,0,0,0,0,0,0,0,0,0,0,0,0,0,0,0,0,0,0,0,0],"id":4,"left_children":[1,3,5,7,9,11,13,-1,15,17,19,21,23,25,27,-1,29,31,33,-1,35,37,39,-1,41,43,45,47,49,-1,51,-1,53,-1,55,57,59,61,-1,63,65,67,69,71,73,-1,75,-1,77,79,-1,-1,-1,-1,-1,-1,-1,-1,-1,-1,-1,-1,-1,-1,-1,-1,-1,-1,-1,-1,-1,-1,-1,-1,-1,-1,-1,-1,-1,-1,-1],"loss_changes":[1.292131E1,9.607239E-1,1.3773861E0,1.3768768E-1,2.4602619E-1,1.5731892E-1,1.7249632E-1,0E0,3.128767E-2,1.2104094E-2,8.388652E-2,5.6686506E-2,5.8936477E-2,9.973431E-2,1.5685812E-2,0E0,9.863794E-3,5.9649916E-3,2.6456714E-3,0E0,1.5439397E-2,5.1353857E-2,2.911262E-2,0E0,5.9240043E-2,6.4626455E-2,1.6021729E-2,4.4983467E-3,1.4274985E-2,0E0,8.440137E-3,0E0,2.640793E-3,0E0,9.907484E-4,1.1838278E-2,1.8017853E-2,7.30375E-3,0E0,1.0143176E-2,2.7311185E-2,6.498474E-2,3.1590268E-2,6.5669775E-2,1.5424013E-2,0E0,1.8777847E-3,0E0,8.108455E-5,2.4228439E-2,0E0,0E0,0E0,0E0,0E0,0E0,0E0,0E0,0E0,0E0,0E0,0E0,0E0,0E0,0E0,0E0,0E0,0E0,0E0,0E0,0E0,0E0,0E0,0E0,0E0,0E0,0E0,0E0,0E0,0E0,0E0],"parents":[2147483647,0,0,1,1,2,2,3,3,4,4,5,5,6,6,8,8,9,9,10,10,11,11,12,12,13,13,14,14,16,16,17,17,18,18,20,20,21,21,22,22,24,24,25,25,26,26,27,27,28,28,30,30,32,32,34,34,35,35,36,36,37,37,39,39,40,40,41,41,42,42,43,43,44,44,46,46,48,48,49,49],"right_children":[2,4,6,8,10,12,14,-1,16,18,20,22,24,26,28,-1,30,32,34,-1,36,38,40,-1,42,44,46,48,50,-1,52,-1,54,-1,56,58,60,62,-1,64,66,68,70,72,74,-1,76,-1,78,80,-1,-1,-1,-1,-1,-1,-1,-1,-1,-1,-1,-1,-1,-1,-1,-1,-1,-1,-1,-1,-1,-1,-1,-1,-1,-1,-1,-1,-1,-1,-1],"split_conditions":[1.5028676E-1,9.7908534E-2,1.1463073E-1,-4.44483E-3,-2.8585263E-2,3.976701E-2,-3.2810006E-2,-1.8349482E-3,4.6125993E-2,1.1963919E-3,1.3547316E-3,-6.499457E-2,3.6916696E-4,1.4214435E-1,-3.2696337E-2,-1.3754141E-3,3.991384E-3,-4.5228858E-2,-8.364175E-2,1.9793152E-3,-2.7869966E-2,-5.992801E-2,1.7515518E-2,1.9492424E-3,6.284167E-2,2.979146E-2,7.0239604E-4,1.1459997E-1,6.907012E-2,-4.2142536E-4,2.6181329E-2,1.9591495E-4,-3.106868E-2,-2.7223254E-4,-8.1371E-2,1.0245912E-1,-2.2096673E-2,9.4652966E-2,1.5627268E-3,8.3557725E-2,8.4808536E-2,1.2249321E-2,-6.545725E-2,-2.5306344E-2,1.2909546E-1,1.0613485E-3,-5.3721827E-2,4.1191027E-4,1.1525284E-1,5.007997E-2,1.1975688E-3,-2.764971E-4,-1.1193472E-3,-5.670186E-4,-9.620125E-5,-3.2655263E-4,-8.53365E-4,-1.07186286E-4,8.396626E-4,-2.4072983E-4,1.3330605E-4,-4.6550974E-4,2.7509703E-4,5.6349667E-4,2.270465E-5,-3.225667E-4,1.2113797E-4,9.4931107E-4,4.167484E-4,9.170824E-4,-7.888792E-5,1.4514425E-3,5.405568E-4,2.3984334E-3,4.6524292E-4,9.606303E-4,1.9796342E-3,-2.498348E-4,-5.311057E-5,3.2334134E-4,1.1979676E-3],"split_indices":[180,1,148,1,114,132,107,0,92,158,179,91,178,101,107,0,134,77,72,0,114,79,179,0,95,188,188,64,89,0,156,0,77,0,91,66,114,65,0,64,64,189,76,91,64,0,85,0,64,150,0,0,0,0,0,0,0,0,0,0,0,0,0,0,0,0,0,0,0,0,0,0,0,0,0,0,0,0,0,0,0],"split_type":[0,0,0,0,0,0,0,0,0,0,0,0,0,0,0,0,0,0,0,0,0,0,0,0,0,0,0,0,0,0,0,0,0,0,0,0,0,0,0,0,0,0,0,0,0,0,0,0,0,0,0,0,0,0,0,0,0,0,0,0,0,0,0,0,0,0,0,0,0,0,0,0,0,0,0,0,0,0,0,0,0],"sum_hessian":[1.026E3,5.24E2,5.02E2,3.46E2,1.78E2,2.04E2,2.98E2,7.1E1,2.75E2,1.1E2,6.8E1,7.9E1,1.25E2,2.71E2,2.7E1,2.14E2,6.1E1,9E0,1.01E2,1E0,6.7E1,8E0,7.1E1,3E0,1.22E2,1.72E2,9.9E1,3E0,2.4E1,4E0,5.7E1,1E0,8E0,2E0,9.9E1,4E0,6.3E1,4E0,4E0,1.6E1,5.5E1,1.04E2,1.8E1,1.61E2,1.1E1,6E0,9.3E1,1E0,2E0,1.6E1,8E0,2E0,5.5E1,6E0,2E0,2E0,9.7E1,2E0,2E0,4.6E1,1.7E1,1E0,3E0,1.1E1,5E0,2.3E1,3.2E1,6.5E1,3.9E1,3E0,1.5E1,1.51E2,1E1,1E1,1E0,3E0,9E1,1E0,1E0,1.2E1,4E0],"tree_param":{"num_deleted":"0","num_feature":"192","num_nodes":"81","size_leaf_vector":"1"}},{"base_weights":[-4.625093E-3,-1.0751128E-1,1.1113119E-1,-1.4096662E-1,-4.8765417E-2,1.5116777E-1,4.8555925E-2,-1.2896298E-1,-1.812709E-3,-7.5948566E-2,-9.977577E-4,2.0204413E-1,1.2964085E-1,2.6074443E-2,7.5595066E-2,-1.3331916E-3,-9.89607E-2,1.155903E-2,-7.881832E-2,1.9694185E-3,-6.3339937E-3,1.748321E-1,2.2645597E-1,1.3879465E-1,7.083141E-2,5.2315565E-3,4.6064287E-2,6.598929E-2,1.3683645E-1,-2.2485697E-4,-1.0248676E-1,-3.0008247E-4,4.92733E-4,-3.5345897E-2,-8.10785E-2,-2.4762098E-2,9.9489475E-3,1.8208994E-1,5.310241E-4,2.85801E-1,1.7666112E-1,8.1231065E-2,1.4567026E-1,7.960595E-2,-8.298218E-3,-4.839708E-2,1.7032774E-2,5.4637972E-2,-3.3060487E-2,-1.8104274E-3,7.598647E-2,1.5849298E-3,2.6254704E-2,-4.1903224E-4,-1.0659992E-3,1.6283532E-4,-5.526963E-4,-8.2200905E-4,-1.0278393E-4,1.0796447E-4,-3.1048403E-4,-2.450724E-4,2.744664E-4,1.2741664E-3,1.991436E-3,1.076322E-3,3.1425925E-3,4.0970318E-4,1.8044993E-3,1.3241014E-3,3.5614005E-4,1.3776193E-3,2.2056224E-3,1.9468575E-4,8.8817655E-4,8.7837085E-5,-2.9772E-4,-1.8414035E-5,-5.336533E-4,2.7401684E-4,-3.4348652E-4,3.8405074E-4,9.788506E-4,5.161345E-5,-4.1737122E-4,4.8216316E-4,-2.6597496E-4,3.5531126E-4,8.775097E-4,3.9862082E-4,-4.80026E-6],"categories":[],"categories_nodes":[],"categories_segments":[],"categories_sizes":[],"default_left":[0,0,0,0,0,0,0,0,0,0,0,0,0,0,0,0,0,0,0,0,0,0,0,0,0,0,0,0,0,0,0,0,0,0,0,0,0,0,0,0,0,0,0,0,0,0,0,0,0,0,0,0,0,0,0,0,0,0,0,0,0,0,0,0,0,0,0,0,0,0,0,0,0,0,0,0,0,0,0,0,0,0,0,0,0,0,0,0,0,0,0],"id":5,"left_children":[1,3,5,7,9,11,13,15,-1,17,19,21,23,25,27,-1,29,31,33,-1,35,37,39,41,43,45,47,49,51,-1,53,-1,-1,55,57,59,61,63,-1,65,67,69,71,73,75,77,79,81,83,85,87,-1,89,-1,-1,-1,-1,-1,-1,-1,-1,-1,-1,-1,-1,-1,-1,-1,-1,-1,-1,-1,-1,-1,-1,-1,-1,-1,-1,-1,-1,-1,-1,-1,-1,-1,-1,-1,-1,-1,-1],"loss_changes":[1.2552886E1,1.0897985E0,1.2352881E0,1.4837074E-1,2.648132E-1,3.0456114E-1,1.16565496E-1,2.30093E-2,0E0,3.3557355E-2,8.046637E-2,1.88663E-2,1.0591006E-1,4.4756785E-2,4.273808E-2,0E0,8.21206E-3,9.317001E-3,9.514391E-3,0E0,2.2451073E-2,3.0971289E-2,7.657838E-2,6.13873E-2,2.21847E-2,3.5000034E-2,3.9117858E-2,5.300641E-2,2.2181794E-2,0E0,4.7531426E-3,0E0,0E0,9.129191E-3,8.6116195E-3,8.158831E-3,2.4788797E-2,1.4718056E-2,0E0,5.7442307E-2,5.9736967E-3,4.66464E-2,6.674719E-2,1.3781935E-2,1.7287626E-3,2.2147372E-3,2.4915833E-2,3.1342E-2,2.205242E-3,1.4922613E-2,2.9245824E-2,0E0,1.1105035E-3,0E0,0E0,0E0,0E0,0E0,0E0,0E0,0E0,0E0,0E0,0E0,0E0,0E0,0E0,0E0,0E0,0E0,0E0,0E0,0E0,0E0,0E0,0E0,0E0,0E0,0E0,0E0,0E0,0E0,0E0,0E0,0E0,0E0,0E0,0E0,0E0,0E0,0E0],"parents":[2147483647,0,0,1,1,2,2,3,3,4,4,5,5,6,6,7,7,9,9,10,10,11,11,12,12,13,13,14,14,16,16,17,17,18,18,20,20,21,21,22,22,23,23,24,24,25,25,26,26,27,27,28,28,30,30,33,33,34,34,35,35,36,36,37,37,39,39,40,40,41,41,42,42,43,43,44,44,45,45,46,46,47,47,48,48,49,49,50,50,52,52],"right_children":[2,4,6,8,10,12,14,16,-1,18,20,22,24,26,28,-1,30,32,34,-1,36,38,40,42,44,46,48,50,52,-1,54,-1,-1,56,58,60,62,64,-1,66,68,70,72,74,76,78,80,82,84,86,88,-1,90,-1,-1,-1,-1,-1,-1,-1,-1,-1,-1,-1,-1,-1,-1,-1,-1,-1,-1,-1,-1,-1,-1,-1,-1,-1,-1,-1,-1,-1,-1,-1,-1,-1,-1,-1,-1,-1,-1],"split_conditions":[1.6180077E-1,9.7908534E-2,-7.834111E-2,1.9279342E-2,-2.9029068E-2,-1.6177638E-1,7.805519E-2,6.3515745E-2,-1.812709E-3,-1.2498936E-1,1.3547316E-3,1.8939463E-2,-3.3488348E-2,-3.2596872E-5,-3.1464666E-2,-1.3331916E-3,-2.9669762E-2,-3.1032775E-2,2.111148E-3,1.9694185E-3,-5.992801E-2,-2.0635241E-1,9.604225E-2,9.1495365E-4,1.6137004E-2,-1.02414094E-1,6.394733E-2,-3.8533926E-2,-9.075728E-2,-2.2485697E-4,3.991384E-3,-3.0008247E-4,4.92733E-4,8.284733E-2,7.727282E-2,4.9439006E-2,3.342554E-3,6.594859E-3,5.310241E-4,5.397273E-2,1.364764E-1,-4.595008E-2,2.8782427E-2,-2.0974316E-3,1.0470666E-1,-1.1546406E-1,-6.0943484E-2,6.0840383E-2,1.2145493E-2,5.842384E-2,7.426814E-2,1.5849298E-3,9.015459E-2,-4.1903224E-4,-1.0659992E-3,1.6283532E-4,-5.526963E-4,-8.2200905E-4,-1.0278393E-4,1.0796447E-4,-3.1048403E-4,-2.450724E-4,2.744664E-4,1.2741664E-3,1.991436E-3,1.076322E-3,3.1425925E-3,4.0970318E-4,1.8044993E-3,1.3241014E-3,3.5614005E-4,1.3776193E-3,2.2056224E-3,1.9468575E-4,8.8817655E-4,8.7837085E-5,-2.9772E-4,-1.8414035E-5,-5.336533E-4,2.7401684E-4,-3.4348652E-4,3.8405074E-4,9.788506E-4,5.161345E-5,-4.1737122E-4,4.8216316E-4,-2.6597496E-4,3.5531126E-4,8.775097E-4,3.9862082E-4,-4.80026E-6],"split_indices":[180,1,84,107,114,77,168,188,0,119,179,125,107,109,81,0,107,84,175,0,79,119,67,171,189,108,95,79,94,0,134,0,0,66,82,92,128,190,0,89,66,85,188,73,66,104,103,95,74,95,134,0,66,0,0,0,0,0,0,0,0,0,0,0,0,0,0,0,0,0,0,0,0,0,0,0,0,0,0,0,0,0,0,0,0,0,0,0,0,0,0],"split_type":[0,0,0,0,0,0,0,0,0,0,0,0,0,0,0,0,0,0,0,0,0,0,0,0,0,0,0,0,0,0,0,0,0,0,0,0,0,0,0,0,0,0,0,0,0,0,0,0,0,0,0,0,0,0,0,0,0,0,0,0,0,0,0,0,0,0,0,0,0,0,0,0,0,0,0,0,0,0,0,0,0,0,0,0,0,0,0,0,0,0,0],"sum_hessian":[1.052E3,5.57E2,4.95E2,3.54E2,2.03E2,3.01E2,1.94E2,2.76E2,7.8E1,1.29E2,7.4E1,8.7E1,2.14E2,1.07E2,8.7E1,2.38E2,3.8E1,4E0,1.25E2,1E0,7.3E1,4.5E1,4.2E1,1.84E2,3E1,5.3E1,5.4E1,7.7E1,1E1,2E0,3.6E1,2E0,2E0,7E0,1.18E2,3.4E1,3.9E1,4.2E1,3E0,1.7E1,2.5E1,2.1E1,1.63E2,2.7E1,3E0,9E0,4.4E1,4.9E1,5E0,1E1,6.7E1,8E0,2E0,3E0,3.3E1,2E0,5E0,1.16E2,2E0,5E0,2.9E1,1.3E1,2.6E1,1.2E1,3E1,3E0,1.4E1,1E0,2.4E1,9E0,1.2E1,1.5E2,1.3E1,4E0,2.3E1,2E0,1E0,1E0,8E0,3.7E1,7E0,3.7E1,1.2E1,1E0,4E0,3E0,7E0,1.6E1,5.1E1,1E0,1E0],"tree_param":{"num_deleted":"0","num_feature":"192","num_nodes":"91","size_leaf_vector":"1"}},{"base_weights":[1.6496818E-3,-1.0333795E-1,1.18466556E-1,-1.3155784E-1,-2.4971927E-2,1.4803188E-1,5.6932434E-2,-1.2036781E-1,-1.7907663E-3,-5.8605243E-2,-6.1006043E-3,1.9016103E-1,1.2480917E-1,5.4926765E-3,6.687229E-2,-8.940539E-2,-1.3074565E-1,-6.232218E-2,6.5479346E-4,1.9595714E-3,-1.0380335E-2,1.7070656E-1,2.2811094E-1,1.2838583E-1,2.8678123E-2,-4.1216973E-2,3.1137332E-2,1.4134239E-1,5.409812E-2,-9.135235E-4,-2.7141313E-4,-1.3211606E-3,-5.4823526E-4,4.2129963E-4,-6.5253824E-2,1.1724297E-2,-3.1347685E-2,1.7416567E-1,8.398679E-4,7.6037366E-4,2.3482005E-1,1.2983134E-1,-1.3186216E-2,6.6680467E-4,-1.436462E-3,-3.474012E-5,-4.5024633E-2,-1.0549956E-2,5.286014E-2,2.206318E-4,1.540774E-1,7.025587E-2,2.7043544E-2,-3.545932E-4,-7.092922E-4,-3.7209768E-4,2.3005411E-4,-1.3082528E-4,-5.4208474E-4,5.456711E-4,1.7666067E-3,2.5398347E-3,1.4079097E-3,1.6050756E-3,1.1943029E-3,3.782667E-5,-2.3561991E-4,8.84819E-5,-2.642986E-4,-1.8083845E-4,-5.0138595E-4,-2.982953E-4,2.5099315E-4,6.384764E-4,-1.38490395E-5,1.1455163E-4,1.6227535E-3,9.219048E-4,4.701528E-4,7.701258E-5,5.0836336E-4],"categories":[],"categories_nodes":[],"categories_segments":[],"categories_sizes":[],"default_left":[0,0,0,0,0,0,0,0,0,0,0,0,0,0,0,0,0,0,0,0,0,0,0,0,0,0,0,0,0,0,0,0,0,0,0,0,0,0,0,0,0,0,0,0,0,0,0,0,0,0,0,0,0,0,0,0,0,0,0,0,0,0,0,0,0,0,0,0,0,0,0,0,0,0,0,0,0,0,0,0,0],"id":6,"left_children":[1,3,5,7,9,11,13,15,-1,17,19,21,23,25,27,29,31,33,-1,-1,35,37,39,41,43,45,47,49,51,-1,-1,-1,-1,-1,53,55,57,59,-1,-1,61,63,65,-1,67,-1,69,71,73,-1,75,77,79,-1,-1,-1,-1,-1,-1,-1,-1,-1,-1,-1,-1,-1,-1,-1,-1,-1,-1,-1,-1,-1,-1,-1,-1,-1,-1,-1,-1],"loss_changes":[1.26445E1,1.1975484E0,8.793788E-1,1.9060802E-1,9.16747E-2,2.9814482E-1,8.144128E-2,9.3061924E-2,0E0,2.8063998E-2,8.332085E-2,4.5963764E-2,7.024145E-2,3.3625413E-2,1.1982697E-1,7.824719E-3,1.7935276E-2,1.8366203E-2,0E0,0E0,4.3470755E-2,9.370327E-3,1.8874884E-2,4.4073343E-2,1.0395608E-2,1.2807101E-3,1.6857844E-2,2.5461972E-2,4.8808396E-2,0E0,0E0,0E0,0E0,0E0,5.9396774E-3,2.6249439E-2,1.9333504E-2,1.3038397E-2,0E0,0E0,2.5506616E-2,4.62389E-2,6.1732304E-4,0E0,1.7761469E-3,0E0,3.3326633E-4,5.55982E-3,7.2406307E-3,0E0,1.801765E-2,3.2369316E-2,2.0317812E-2,0E0,0E0,0E0,0E0,0E0,0E0,0E0,0E0,0E0,0E0,0E0,0E0,0E0,0E0,0E0,0E0,0E0,0E0,0E0,0E0,0E0,0E0,0E0,0E0,0E0,0E0,0E0,0E0],"parents":[2147483647,0,0,1,1,2,2,3,3,4,4,5,5,6,6,7,7,9,9,10,10,11,11,12,12,13,13,14,14,15,15,16,16,17,17,20,20,21,21,22,22,23,23,24,24,25,25,26,26,27,27,28,28,34,34,35,35,36,36,37,37,40,40,41,41,42,42,44,44,46,46,47,47,48,48,50,50,51,51,52,52],"right_children":[2,4,6,8,10,12,14,16,-1,18,20,22,24,26,28,30,32,34,-1,-1,36,38,40,42,44,46,48,50,52,-1,-1,-1,-1,-1,54,56,58,60,-1,-1,62,64,66,-1,68,-1,70,72,74,-1,76,78,80,-1,-1,-1,-1,-1,-1,-1,-1,-1,-1,-1,-1,-1,-1,-1,-1,-1,-1,-1,-1,-1,-1,-1,-1,-1,-1,-1,-1],"split_conditions":[1.6393694E-1,8.428137E-2,-1.2251847E-1,1.9279342E-2,3.998138E-2,-2.1717936E-1,8.815102E-2,7.451346E-3,-1.7907663E-3,4.15001E-2,1.3547316E-3,1.6714494E-1,3.1096933E-2,-5.108528E-2,1.45862E-2,8.4729835E-2,8.314221E-3,-2.648028E-2,6.5479346E-4,1.9595714E-3,-5.700225E-2,1.6567004E-1,7.0239604E-4,1.5381945E-2,6.5478675E-2,3.790644E-3,8.170198E-3,3.362173E-2,5.810587E-2,-9.135235E-4,-2.7141313E-4,-1.3211606E-3,-5.4823526E-4,4.2129963E-4,3.991384E-3,3.6135055E-3,3.3810742E-2,7.810209E-2,8.398679E-4,7.6037366E-4,4.7435947E-2,2.7842533E-2,1.1063273E-1,6.6680467E-4,1.1117278E-1,-3.474012E-5,-5.8771458E-2,3.5838064E-2,-4.985144E-2,2.206318E-4,3.4058616E-3,1.885283E-2,9.145146E-2,-3.545932E-4,-7.092922E-4,-3.7209768E-4,2.3005411E-4,-1.3082528E-4,-5.4208474E-4,5.456711E-4,1.7666067E-3,2.5398347E-3,1.4079097E-3,1.6050756E-3,1.1943029E-3,3.782667E-5,-2.3561991E-4,8.84819E-5,-2.642986E-4,-1.8083845E-4,-5.0138595E-4,-2.982953E-4,2.5099315E-4,6.384764E-4,-1.38490395E-5,1.1455163E-4,1.6227535E-3,9.219048E-4,4.701528E-4,7.701258E-5,5.0836336E-4],"split_indices":[180,0,72,107,67,116,64,162,0,71,179,160,71,76,125,153,125,69,0,0,106,160,188,171,65,100,100,117,95,0,0,0,0,0,134,186,162,83,0,0,150,150,64,0,64,0,118,162,68,0,156,125,82,0,0,0,0,0,0,0,0,0,0,0,0,0,0,0,0,0,0,0,0,0,0,0,0,0,0,0,0],"split_type":[0,0,0,0,0,0,0,0,0,0,0,0,0,0,0,0,0,0,0,0,0,0,0,0,0,0,0,0,0,0,0,0,0,0,0,0,0,0,0,0,0,0,0,0,0,0,0,0,0,0,0,0,0,0,0,0,0,0,0,0,0,0,0,0,0,0,0,0,0,0,0,0,0,0,0,0,0,0,0,0,0],"sum_hessian":[1.029E3,5.42E2,4.87E2,3.98E2,1.44E2,3.28E2,1.59E2,3.25E2,7.3E1,5.1E1,9.3E1,1.14E2,2.14E2,2.6E1,1.33E2,8.4E1,2.41E2,5E1,1E0,1E0,9.2E1,7.9E1,3.5E1,2.06E2,8E0,9E0,1.7E1,1.8E1,1.15E2,8.1E1,3E0,2.36E2,5E0,1E0,4.9E1,4.5E1,4.7E1,7.5E1,4E0,2E0,3.3E1,2.04E2,2E0,3E0,5E0,1E0,8E0,6E0,1.1E1,2E0,1.6E1,7.1E1,4.4E1,9E0,4E1,8E0,3.7E1,2.7E1,2E1,2E0,7.3E1,2.6E1,7E0,4.8E1,1.56E2,1E0,1E0,4E0,1E0,2E0,6E0,4E0,2E0,9E0,2E0,1E0,1.5E1,3.5E1,3.6E1,2.5E1,1.9E1],"tree_param":{"num_deleted":"0","num_feature":"192","num_nodes":"81","size_leaf_vector":"1"}},{"base_weights":[-1.5287001E-4,-9.5705904E-2,1.2540713E-1,-1.3202752E-1,-1.972656E-2,7.998009E-2,1.6534464E-1,-1.7782626E-3,-1.20344885E-1,-6.345469E-2,-2.1557356E-3,5.5892065E-2,1.0639975E-1,1.975001E-1,1.448122E-1,-8.5235E-4,-1.2842047E-1,-6.86442E-2,4.9378354E-2,-4.6581435E-3,1.12005346E-1,6.894992E-2,1.5691722E-2,1.3263652E-1,7.521333E-2,-2.629771E-4,2.0031016E-1,1.0600885E-1,1.5215267E-1,-1.2773357E-4,-1.2881921E-1,5.027637E-5,-7.0157655E-2,6.515195E-4,8.915581E-5,1.1611361E-2,-2.0163838E-2,1.9497735E-3,-2.6969344E-4,-2.7233655E-2,7.530182E-2,-1.3849131E-2,5.8695357E-2,8.67109E-2,1.7364968E-1,6.0560234E-2,1.891179E-3,1.8081091E-1,2.3838948E-1,2.0498001E-4,1.120298E-1,6.910298E-2,1.550861E-1,-1.329134E-3,-1.1089095E-3,-7.1574113E-4,1.0409057E-5,-1.330124E-4,2.2495473E-4,7.0316467E-4,-2.3859089E-4,-4.4886288E-4,5.3810723E-5,2.0770424E-3,7.099667E-4,7.359278E-5,-4.127955E-4,3.2661806E-5,6.9454574E-4,1.3688933E-3,4.365763E-4,1.0761742E-3,2.0616176E-3,6.651685E-4,-1.5635199E-4,1.9235592E-3,1.2161039E-3,2.9385477E-4,2.4529786E-3,1.6616411E-4,1.1531301E-3,8.4138126E-4,-3.0363797E-5,2.1182075E-5,1.563754E-3],"categories":[],"categories_nodes":[],"categories_segments":[],"categories_sizes":[],"default_left":[0,0,0,0,0,0,0,0,0,0,0,0,0,0,0,0,0,0,0,0,0,0,0,0,0,0,0,0,0,0,0,0,0,0,0,0,0,0,0,0,0,0,0,0,0,0,0,0,0,0,0,0,0,0,0,0,0,0,0,0,0,0,0,0,0,0,0,0,0,0,0,0,0,0,0,0,0,0,0,0,0,0,0,0,0],"id":7,"left_children":[1,3,5,7,9,11,13,-1,15,17,19,21,23,25,27,-1,29,31,33,35,37,39,41,43,45,-1,47,49,51,-1,53,-1,55,-1,-1,57,59,-1,-1,61,63,65,67,69,71,73,-1,75,77,-1,79,81,83,-1,-1,-1,-1,-1,-1,-1,-1,-1,-1,-1,-1,-1,-1,-1,-1,-1,-1,-1,-1,-1,-1,-1,-1,-1,-1,-1,-1,-1,-1,-1,-1],"loss_changes":[1.2465552E1,1.6256142E0,8.013711E-1,1.9208479E-1,1.4738435E-1,1.2896931E-1,1.2853432E-1,0E0,8.006859E-2,3.559473E-2,3.994525E-2,5.82352E-2,7.184708E-2,6.1867476E-2,2.631092E-2,0E0,1.0297298E-2,6.2621683E-3,1.333863E-3,3.4542847E-2,3.985144E-2,5.3981304E-2,3.765344E-2,8.477098E-2,6.86616E-2,0E0,2.298069E-2,1.1604726E-2,1.9248247E-2,0E0,4.198551E-3,0E0,5.3187013E-3,0E0,0E0,1.846637E-2,2.5082013E-2,0E0,0E0,3.6959513E-3,3.0854642E-2,1.0775387E-2,6.9296435E-3,5.2353084E-2,3.5778284E-2,2.101019E-2,0E0,1.9665956E-2,3.1776547E-2,0E0,5.915493E-3,6.763229E-3,2.2941113E-2,0E0,0E0,0E0,0E0,0E0,0E0,0E0,0E0,0E0,0E0,0E0,0E0,0E0,0E0,0E0,0E0,0E0,0E0,0E0,0E0,0E0,0E0,0E0,0E0,0E0,0E0,0E0,0E0,0E0,0E0,0E0,0E0],"parents":[2147483647,0,0,1,1,2,2,3,3,4,4,5,5,6,6,8,8,9,9,10,10,11,11,12,12,13,13,14,14,16,16,17,17,18,18,19,19,20,20,21,21,22,22,23,23,24,24,26,26,27,27,28,28,30,30,32,32,35,35,36,36,39,39,40,40,41,41,42,42,43,43,44,44,45,45,47,47,48,48,50,50,51,51,52,52],"right_children":[2,4,6,8,10,12,14,-1,16,18,20,22,24,26,28,-1,30,32,34,36,38,40,42,44,46,-1,48,50,52,-1,54,-1,56,-1,-1,58,60,-1,-1,62,64,66,68,70,72,74,-1,76,78,-1,80,82,84,-1,-1,-1,-1,-1,-1,-1,-1,-1,-1,-1,-1,-1,-1,-1,-1,-1,-1,-1,-1,-1,-1,-1,-1,-1,-1,-1,-1,-1,-1,-1,-1],"split_conditions":[3.8550816E-2,8.428137E-2,7.698928E-2,-7.5125694E-4,3.998138E-2,7.9164535E-2,-1.607893E-1,-1.7782626E-3,6.659612E-3,-2.3667868E-2,4.1439667E-2,-4.2314116E-2,3.891345E-3,1.1578296E-1,1.735419E-3,-8.5235E-4,-2.9669762E-2,4.924871E-4,5.6217268E-2,3.0717324E-2,6.606223E-2,-4.25661E-2,-5.610947E-2,-3.6381587E-2,-4.2974018E-2,-2.629771E-4,-1.0362989E-1,9.892983E-2,1.0842323E-1,-1.2773357E-4,4.5492124E-2,5.027637E-5,-2.7478023E-2,6.515195E-4,8.915581E-5,5.8304742E-2,-9.784423E-2,1.9497735E-3,-2.6969344E-4,1.2599976E-1,8.8766366E-2,4.8321515E-2,7.056967E-2,-1.5001121E-1,-6.0787566E-2,1.0726565E-1,1.891179E-3,6.190157E-2,7.351488E-5,2.0498001E-4,1.2049338E-1,1.3140452E-1,7.298599E-2,-1.329134E-3,-1.1089095E-3,-7.1574113E-4,1.0409057E-5,-1.330124E-4,2.2495473E-4,7.0316467E-4,-2.3859089E-4,-4.4886288E-4,5.3810723E-5,2.0770424E-3,7.099667E-4,7.359278E-5,-4.127955E-4,3.2661806E-5,6.9454574E-4,1.3688933E-3,4.365763E-4,1.0761742E-3,2.0616176E-3,6.651685E-4,-1.5635199E-4,1.9235592E-3,1.2161039E-3,2.9385477E-4,2.4529786E-3,1.6616411E-4,1.1531301E-3,8.4138126E-4,-3.0363797E-5,2.1182075E-5,1.563754E-3],"split_indices":[132,0,132,95,67,161,77,0,183,86,170,85,171,136,190,0,107,175,64,170,64,107,80,107,76,0,87,82,126,0,92,0,114,0,0,182,77,0,0,66,64,117,89,105,81,136,0,149,171,0,66,64,75,0,0,0,0,0,0,0,0,0,0,0,0,0,0,0,0,0,0,0,0,0,0,0,0,0,0,0,0,0,0,0,0],"split_type":[0,0,0,0,0,0,0,0,0,0,0,0,0,0,0,0,0,0,0,0,0,0,0,0,0,0,0,0,0,0,0,0,0,0,0,0,0,0,0,0,0,0,0,0,0,0,0,0,0,0,0,0,0,0,0,0,0,0,0,0,0,0,0,0,0,0,0,0,0,0,0,0,0,0,0,0,0,0,0,0,0,0,0,0,0],"sum_hessian":[1.037E3,5.89E2,4.48E2,3.98E2,1.91E2,2.11E2,2.37E2,7.8E1,3.2E2,5.4E1,1.37E2,1.12E2,9.9E1,8.9E1,1.48E2,6.2E1,2.58E2,5.2E1,2E0,1.35E2,2E0,8.4E1,2.8E1,5.2E1,4.7E1,1E0,8.8E1,2.6E1,1.22E2,1E0,2.57E2,1E0,5.1E1,1E0,1E0,6.6E1,6.9E1,1E0,1E0,5E0,7.9E1,1.7E1,1.1E1,2.6E1,2.6E1,4.3E1,4E0,6.2E1,2.6E1,2E0,2.4E1,5E0,1.17E2,2.04E2,5.3E1,5E1,1E0,2E1,4.6E1,2E0,6.7E1,3E0,2E0,1E0,7.8E1,1E1,7E0,2E0,9E0,1.1E1,1.5E1,1E1,1.6E1,4E1,3E0,5E1,1.2E1,1E0,2.5E1,1E0,2.3E1,4E0,1E0,1E0,1.16E2],"tree_param":{"num_deleted":"0","num_feature":"192","num_nodes":"85","size_leaf_vector":"1"}},{"base_weights":[4.582451E-5,1.1066063E-1,-1.0512213E-1,4.6530616E-2,1.4890875E-1,-1.3716282E-1,-4.787146E-2,5.9341516E-2,1.2537701E-2,1.259941E-1,1.9025962E-1,-1.7624014E-3,-1.2534899E-1,-7.338047E-2,-8.306769E-3,-3.303181E-4,6.1656084E-2,3.9770488E-2,-1.955384E-2,1.3510807E-1,7.047998E-2,1.6684234E-1,2.3376063E-1,-1.2794338E-1,-8.29283E-2,-7.5145975E-2,6.4826186E-4,1.9400248E-3,-1.3590924E-2,7.637355E-2,4.5335464E-2,1.2911039E-3,2.4496252E-2,8.002237E-3,-5.007311E-2,-1.8445894E-2,1.3698988E-1,3.5989847E-2,1.0487014E-1,1.7574519E-1,1.3135263E-3,2.8044358E-3,1.9130586E-1,-1.2816559E-3,-3.675203E-4,-2.6094966E-4,-9.255531E-2,-2.6827887E-2,-7.999858E-2,-5.4308273E-2,-5.7440633E-3,6.1219075E-4,1.4325569E-3,3.203775E-4,8.8411826E-4,-3.0283062E-4,4.24442E-4,5.959649E-4,-1.8595112E-4,1.5505038E-4,-5.744431E-4,-3.442779E-5,-2.4226062E-4,9.2216465E-4,1.4324036E-3,5.7720713E-4,-2.7708386E-4,1.1222598E-3,9.441823E-6,4.2306853E-4,1.7737253E-3,1.3579476E-3,2.443397E-3,-3.2204707E-4,-9.936272E-4,-5.5058365E-4,2.370646E-4,-8.088675E-4,-2.3134628E-4,-1.6045347E-5,-5.8953656E-4,6.04613E-4,-1.2379455E-4],"categories":[],"categories_nodes":[],"categories_segments":[],"categories_sizes":[],"default_left":[0,0,0,0,0,0,0,0,0,0,0,0,0,0,0,0,0,0,0,0,0,0,0,0,0,0,0,0,0,0,0,0,0,0,0,0,0,0,0,0,0,0,0,0,0,0,0,0,0,0,0,0,0,0,0,0,0,0,0,0,0,0,0,0,0,0,0,0,0,0,0,0,0,0,0,0,0,0,0,0,0,0,0],"id":8,"left_children":[1,3,5,7,9,11,13,15,17,19,21,-1,23,25,27,-1,29,31,33,35,37,39,41,43,45,47,-1,-1,49,51,53,-1,55,57,59,61,63,65,67,69,-1,-1,71,-1,-1,-1,73,75,77,79,81,-1,-1,-1,-1,-1,-1,-1,-1,-1,-1,-1,-1,-1,-1,-1,-1,-1,-1,-1,-1,-1,-1,-1,-1,-1,-1,-1,-1,-1,-1,-1,-1],"loss_changes":[1.1982126E1,1.2244034E0,9.619713E-1,8.1561655E-2,2.7355576E-1,1.339469E-1,1.9215837E-1,3.1327814E-2,4.7096595E-2,9.419799E-2,7.305312E-2,0E0,1.8334866E-2,3.3175886E-2,8.388323E-2,0E0,2.8724134E-2,3.6410645E-2,2.1425482E-2,5.3094864E-2,3.2995492E-2,6.122589E-4,1.7698407E-2,2.7418137E-4,7.433206E-3,2.4817705E-2,0E0,0E0,2.3650803E-2,6.116593E-2,3.4973413E-2,0E0,2.6847921E-2,2.031999E-2,6.6913497E-3,1.7675653E-4,3.520584E-2,2.5131054E-2,1.1361003E-2,4.873514E-3,0E0,0E0,3.1587183E-2,0E0,0E0,0E0,2.9625297E-3,1.8424544E-2,3.3812523E-3,2.843354E-3,2.8863586E-2,0E0,0E0,0E0,0E0,0E0,0E0,0E0,0E0,0E0,0E0,0E0,0E0,0E0,0E0,0E0,0E0,0E0,0E0,0E0,0E0,0E0,0E0,0E0,0E0,0E0,0E0,0E0,0E0,0E0,0E0,0E0,0E0],"parents":[2147483647,0,0,1,1,2,2,3,3,4,4,5,5,6,6,7,7,8,8,9,9,10,10,12,12,13,13,14,14,16,16,17,17,18,18,19,19,20,20,21,21,22,22,23,23,24,24,25,25,28,28,29,29,30,30,32,32,33,33,34,34,35,35,36,36,37,37,38,38,39,39,42,42,46,46,47,47,48,48,49,49,50,50],"right_children":[2,4,6,8,10,12,14,16,18,20,22,-1,24,26,28,-1,30,32,34,36,38,40,42,44,46,48,-1,-1,50,52,54,-1,56,58,60,62,64,66,68,70,-1,-1,72,-1,-1,-1,74,76,78,80,82,-1,-1,-1,-1,-1,-1,-1,-1,-1,-1,-1,-1,-1,-1,-1,-1,-1,-1,-1,-1,-1,-1,-1,-1,-1,-1,-1,-1,-1,-1,-1,-1],"split_conditions":[-1.0239649E-1,7.2369754E-2,5.9379324E-2,-5.9207585E-2,1.1881401E-1,2.6199464E-2,3.998138E-2,1.1247598E-2,3.5852842E-2,-3.3488348E-2,1.4555886E-2,-1.7624014E-3,1.3319354E-2,-2.3495786E-2,1.3547316E-3,-3.303181E-4,-6.380197E-2,-1.7287936E-2,-5.8318835E-2,3.9627954E-2,-7.3817834E-2,-1.0984253E-1,-6.464623E-2,-3.099161E-2,1.3979498E-2,2.075769E-3,6.4826186E-4,1.9400248E-3,2.7099247E-3,-6.6342354E-2,3.4847133E-2,1.2911039E-3,3.914523E-2,6.1011612E-3,-1.0385062E-1,1.01399556E-1,9.1495365E-4,5.9161752E-2,2.300469E-2,1.2137932E-2,1.3135263E-3,2.8044358E-3,-1.3021222E-1,-1.2816559E-3,-3.675203E-4,-2.6094966E-4,8.523762E-4,9.190213E-3,-3.766264E-2,4.8123848E-2,8.968057E-3,6.1219075E-4,1.4325569E-3,3.203775E-4,8.8411826E-4,-3.0283062E-4,4.24442E-4,5.959649E-4,-1.8595112E-4,1.5505038E-4,-5.744431E-4,-3.442779E-5,-2.4226062E-4,9.2216465E-4,1.4324036E-3,5.7720713E-4,-2.7708386E-4,1.1222598E-3,9.441823E-6,4.2306853E-4,1.7737253E-3,1.3579476E-3,2.443397E-3,-3.2204707E-4,-9.936272E-4,-5.5058365E-4,2.370646E-4,-8.088675E-4,-2.3134628E-4,-1.6045347E-5,-5.8953656E-4,6.04613E-4,-1.2379455E-4],"split_indices":[88,167,0,68,165,0,67,125,117,107,154,0,73,86,179,0,80,123,106,149,106,87,80,72,175,158,0,0,100,80,147,0,167,156,72,65,171,95,125,100,0,0,103,0,0,0,158,117,106,92,125,0,0,0,0,0,0,0,0,0,0,0,0,0,0,0,0,0,0,0,0,0,0,0,0,0,0,0,0,0,0,0,0],"split_type":[0,0,0,0,0,0,0,0,0,0,0,0,0,0,0,0,0,0,0,0,0,0,0,0,0,0,0,0,0,0,0,0,0,0,0,0,0,0,0,0,0,0,0,0,0,0,0,0,0,0,0,0,0,0,0,0,0,0,0,0,0,0,0,0,0,0,0,0,0,0,0,0,0,0,0,0,0,0,0,0,0,0,0],"sum_hessian":[1.028E3,5.01E2,5.27E2,1.88E2,3.13E2,3.37E2,1.9E2,1.36E2,5.2E1,2.04E2,1.09E2,7.5E1,2.62E2,1.15E2,7.5E1,3E0,1.33E2,2.8E1,2.4E1,1.74E2,3E1,7.4E1,3.5E1,2.45E2,1.7E1,1.14E2,1E0,1E0,7.4E1,6.8E1,6.5E1,3E0,2.5E1,1.3E1,1.1E1,2E0,1.72E2,1.6E1,1.4E1,5.6E1,1.8E1,1.4E1,2.1E1,2.44E2,1E0,3E0,1.4E1,1.1E1,1.03E2,1.1E1,6.3E1,5.7E1,1.1E1,5.1E1,1.4E1,6E0,1.9E1,4E0,9E0,1E0,1E1,1E0,1E0,2.3E1,1.49E2,1.2E1,4E0,1.3E1,1E0,1E0,5.5E1,1.2E1,9E0,2E0,1.2E1,7E0,4E0,1.01E2,2E0,1E0,1E1,5E0,5.8E1],"tree_param":{"num_deleted":"0","num_feature":"192","num_nodes":"83","size_leaf_vector":"1"}},{"base_weights":[1.6298364E-3,1.13211535E-1,-9.9638894E-2,7.6665394E-2,1.7283037E-1,-1.2708695E-1,-2.0749582E-2,1.06239334E-1,5.342509E-2,1.5878911E-1,2.2356535E-1,-1.1597286E-1,-1.7343048E-3,-5.141912E-2,5.6984187E-3,1.8387797E-1,9.969473E-2,6.157681E-2,1.9007118E-2,1.6019514E-1,3.8369963E-4,2.3813331E-1,1.2711219E-3,-8.720347E-2,-1.2600772E-1,-6.0245156E-2,1.7893773E-2,1.9303246E-3,5.583308E-4,8.605989E-2,2.846356E-3,1.0987975E-1,3.4177672E-2,6.729999E-2,6.4874673E-3,4.880927E-2,-1.366617E-2,1.6089721E-1,2.990055E-4,9.286633E-4,2.5038096E-1,-8.850578E-4,-2.1671181E-4,-1.2705977E-1,-5.220193E-4,-6.3624606E-2,6.4502057E-4,7.293903E-2,-5.5386237E-4,-8.7515125E-3,3.228848E-2,1.0238638E-3,3.5604608E-4,3.78901E-4,1.1458719E-3,6.338081E-4,-3.479207E-4,1.0042262E-3,5.834633E-4,-2.1063097E-4,3.7047046E-4,1.2977722E-3,2.3963868E-4,-2.8580925E-4,6.5462996E-4,1.6150891E-3,3.701712E-4,4.125969E-4,2.565981E-3,-1.895491E-4,-1.2744737E-3,-2.5677233E-4,-7.131583E-4,9.158224E-5,8.659467E-4,2.2775723E-4,-1.8365508E-4,3.8995265E-4,-3.751002E-4],"categories":[],"categories_nodes":[],"categories_segments":[],"categories_sizes":[],"default_left":[0,0,0,0,0,0,0,0,0,0,0,0,0,0,0,0,0,0,0,0,0,0,0,0,0,0,0,0,0,0,0,0,0,0,0,0,0,0,0,0,0,0,0,0,0,0,0,0,0,0,0,0,0,0,0,0,0,0,0,0,0,0,0,0,0,0,0,0,0,0,0,0,0,0,0,0,0,0,0],"id":9,"left_children":[1,3,5,7,9,11,13,15,17,19,21,23,-1,25,27,29,31,33,35,37,-1,39,-1,41,43,45,47,-1,49,51,-1,53,55,57,59,61,63,65,-1,-1,67,-1,-1,69,-1,71,-1,73,-1,75,77,-1,-1,-1,-1,-1,-1,-1,-1,-1,-1,-1,-1,-1,-1,-1,-1,-1,-1,-1,-1,-1,-1,-1,-1,-1,-1,-1,-1],"loss_changes":[1.1424014E1,1.034771E0,1.1450028E0,2.0051634E-1,9.415436E-2,1.8230772E-1,1.12231426E-1,4.8231244E-2,4.6525806E-2,1.8572569E-2,2.1719933E-2,8.139467E-2,0E0,4.0230528E-2,7.211073E-2,6.4207554E-2,7.8321576E-2,4.275757E-2,3.3774003E-2,8.361816E-3,0E0,3.190267E-2,0E0,5.4214597E-3,1.1614323E-2,2.813381E-2,3.630955E-2,0E0,2.2142375E-2,1.29712E-3,0E0,3.158045E-2,3.845954E-2,3.0915141E-2,1.2567395E-2,3.31003E-2,2.1934262E-2,4.85754E-3,0E0,0E0,2.581644E-2,0E0,0E0,7.2636604E-3,0E0,1.451309E-2,0E0,3.5617873E-3,0E0,1.7998245E-2,9.420812E-3,0E0,0E0,0E0,0E0,0E0,0E0,0E0,0E0,0E0,0E0,0E0,0E0,0E0,0E0,0E0,0E0,0E0,0E0,0E0,0E0,0E0,0E0,0E0,0E0,0E0,0E0,0E0,0E0],"parents":[2147483647,0,0,1,1,2,2,3,3,4,4,5,5,6,6,7,7,8,8,9,9,10,10,11,11,13,13,14,14,15,15,16,16,17,17,18,18,19,19,21,21,23,23,24,24,25,25,26,26,28,28,29,29,31,31,32,32,33,33,34,34,35,35,36,36,37,37,40,40,43,43,45,45,47,47,49,49,50,50],"right_children":[2,4,6,8,10,12,14,16,18,20,22,24,-1,26,28,30,32,34,36,38,-1,40,-1,42,44,46,48,-1,50,52,-1,54,56,58,60,62,64,66,-1,-1,68,-1,-1,70,-1,72,-1,74,-1,76,78,-1,-1,-1,-1,-1,-1,-1,-1,-1,-1,-1,-1,-1,-1,-1,-1,-1,-1,-1,-1,-1,-1,-1,-1,-1,-1,-1,-1],"split_conditions":[-1.19971916E-1,1.064774E-1,8.428137E-2,-1.2315905E-1,1.7672355E-1,-5.0878227E-3,-2.9249731E-2,1.7260171E-2,-5.9207585E-2,-5.176281E-2,-3.1071607E-2,7.451346E-3,-1.7343048E-3,8.382854E-2,1.4544055E-3,8.854285E-3,-5.1364645E-2,9.7069494E-2,6.7900345E-3,-1.1548137E-1,3.8369963E-4,2.9068366E-3,1.2711219E-3,8.4729835E-2,1.8686596E-2,3.5883605E-2,8.389574E-2,1.9303246E-3,-2.139755E-2,7.677332E-2,2.846356E-3,4.677605E-4,1.5433584E-2,-5.0578076E-2,2.0010337E-2,-2.8678045E-2,9.180564E-2,-4.241993E-2,2.990055E-4,9.286633E-4,1.4436245E-4,-8.850578E-4,-2.1671181E-4,1.5313849E-3,-5.220193E-4,2.075769E-3,6.4502057E-4,5.2662216E-2,-5.5386237E-4,5.974147E-2,-7.496078E-2,1.0238638E-3,3.5604608E-4,3.78901E-4,1.1458719E-3,6.338081E-4,-3.479207E-4,1.0042262E-3,5.834633E-4,-2.1063097E-4,3.7047046E-4,1.2977722E-3,2.3963868E-4,-2.8580925E-4,6.5462996E-4,1.6150891E-3,3.701712E-4,4.125969E-4,2.565981E-3,-1.895491E-4,-1.2744737E-3,-2.5677233E-4,-7.131583E-4,9.158224E-5,8.659467E-4,2.2775723E-4,-1.8365508E-4,3.8995265E-4,-3.751002E-4],"split_indices":[102,122,0,72,141,86,114,131,68,118,86,162,0,101,166,164,118,83,186,94,0,190,0,153,132,71,70,0,114,82,0,178,164,86,164,114,82,76,0,0,170,0,0,69,0,158,0,65,0,83,104,0,0,0,0,0,0,0,0,0,0,0,0,0,0,0,0,0,0,0,0,0,0,0,0,0,0,0,0],"split_type":[0,0,0,0,0,0,0,0,0,0,0,0,0,0,0,0,0,0,0,0,0,0,0,0,0,0,0,0,0,0,0,0,0,0,0,0,0,0,0,0,0,0,0,0,0,0,0,0,0,0,0,0,0,0,0,0,0,0,0,0,0,0,0,0,0,0,0,0,0,0,0,0,0,0,0,0,0,0,0],"sum_hessian":[1.009E3,4.8E2,5.29E2,2.99E2,1.81E2,3.92E2,1.37E2,1.3E2,1.69E2,1.45E2,3.6E1,3.19E2,7.3E1,6.3E1,7.4E1,8E0,1.22E2,1.36E2,3.3E1,1.43E2,2E0,3E1,6E0,8.5E1,2.34E2,5.6E1,7E0,1E0,7.3E1,5E0,3E0,1.05E2,1.7E1,1.23E2,1.3E1,1.7E1,1.6E1,1.42E2,1E0,3E0,2.7E1,8.3E1,2E0,2.3E2,4E0,5.5E1,1E0,4E0,3E0,5.7E1,1.6E1,3E0,2E0,7E0,9.8E1,1.2E1,5E0,2.4E1,9.9E1,7E0,6E0,3E0,1.4E1,1.4E1,2E0,1.41E2,1E0,1E0,2.6E1,1E0,2.29E2,1E1,4.5E1,1E0,3E0,1.3E1,4.4E1,1.5E1,1E0],"tree_param":{"num_deleted":"0","num_feature":"192","num_nodes":"79","size_leaf_vector":"1"}},{"base_weights":[4.2857886E-3,1.04090214E-1,-1.0702755E-1,1.4089386E-1,3.4040276E-2,-1.3295609E-1,-5.3861517E-2,1.173821E-1,1.8653584E-1,2.006267E-2,7.32816E-2,-1.2250869E-1,-1.7225632E-3,-7.53961E-2,-2.453809E-5,1.289336E-1,8.034654E-2,2.1442117E-1,1.6668095E-1,-1.4299921E-2,2.7657147E-2,4.3142874E-2,9.624119E-2,-1.2448047E-1,-5.3467657E-2,-3.3463735E-2,-7.821848E-2,1.920673E-3,-8.3758235E-3,7.511939E-2,1.3799848E-1,5.1445562E-2,1.6956785E-1,1.7496097E-1,2.8430817E-1,1.0083016E-3,1.7205594E-1,3.6372446E-2,-3.4883026E-2,-5.711341E-4,3.0437728E-2,-3.3646077E-3,5.3111006E-2,2.89108E-2,1.1836129E-1,-1.2468927E-3,-3.5931036E-4,-6.271939E-4,-2.6223145E-4,1.6646331E-2,-5.0158944E-4,-7.895682E-2,2.2828578E-7,4.7820166E-2,-1.6395338E-2,9.029088E-4,-1.2727657E-4,-1.9273987E-4,1.4022394E-3,-2.3064254E-4,5.909088E-4,2.0232282E-3,3.7099756E-4,3.2879045E-4,1.7848364E-3,2.9406974E-3,7.38231E-4,6.362483E-4,1.7441344E-3,8.392609E-4,-3.2162713E-4,2.34992E-4,-5.2018237E-4,1.7166417E-4,4.910599E-4,-2.8030126E-4,9.8093034E-5,1.0881706E-3,3.1001592E-4,4.9334354E-5,4.2310532E-4,1.3564928E-3,1.5296995E-4,5.0123555E-5,1.995714E-4,-8.06288E-4,-4.379191E-4,1.0550592E-4,8.1572874E-4,-2.4062463E-4,1.8239363E-4],"categories":[],"categories_nodes":[],"categories_segments":[],"categories_sizes":[],"default_left":[0,0,0,0,0,0,0,0,0,0,0,0,0,0,0,0,0,0,0,0,0,0,0,0,0,0,0,0,0,0,0,0,0,0,0,0,0,0,0,0,0,0,0,0,0,0,0,0,0,0,0,0,0,0,0,0,0,0,0,0,0,0,0,0,0,0,0,0,0,0,0,0,0,0,0,0,0,0,0,0,0,0,0,0,0,0,0,0,0,0,0],"id":10,"left_children":[1,3,5,7,9,11,13,15,17,19,21,23,-1,25,27,29,31,33,35,37,39,41,43,45,47,49,51,-1,53,55,57,59,61,63,65,-1,67,69,71,-1,73,75,77,79,81,-1,-1,-1,-1,83,-1,85,-1,87,89,-1,-1,-1,-1,-1,-1,-1,-1,-1,-1,-1,-1,-1,-1,-1,-1,-1,-1,-1,-1,-1,-1,-1,-1,-1,-1,-1,-1,-1,-1,-1,-1,-1,-1,-1,-1],"loss_changes":[1.1420662E1,1.39253E0,6.627984E-1,3.5906267E-1,1.0164772E-1,1.12748146E-1,1.8665454E-1,9.103322E-2,3.0146122E-2,3.6930718E-2,2.975455E-2,2.8875113E-2,0E0,1.0992646E-2,7.7006765E-2,7.695341E-2,1.4341292E-1,7.711387E-2,8.843899E-3,2.8386645E-2,2.8845213E-2,1.0841329E-2,3.67907E-2,1.9788742E-4,6.238315E-4,8.364345E-3,6.183088E-3,0E0,2.1514598E-2,3.846675E-2,5.5902958E-2,2.7566873E-2,5.3239673E-2,1.014787E-2,9.110808E-3,0E0,6.029725E-3,2.8772064E-2,2.0229826E-2,0E0,2.6905276E-2,1.899663E-3,2.0027433E-2,2.3615854E-3,3.3560455E-2,0E0,0E0,0E0,0E0,1.5521364E-5,0E0,2.7012825E-3,0E0,6.6870525E-3,1.1326378E-2,0E0,0E0,0E0,0E0,0E0,0E0,0E0,0E0,0E0,0E0,0E0,0E0,0E0,0E0,0E0,0E0,0E0,0E0,0E0,0E0,0E0,0E0,0E0,0E0,0E0,0E0,0E0,0E0,0E0,0E0,0E0,0E0,0E0,0E0,0E0,0E0],"parents":[2147483647,0,0,1,1,2,2,3,3,4,4,5,5,6,6,7,7,8,8,9,9,10,10,11,11,13,13,14,14,15,15,16,16,17,17,18,18,19,19,20,20,21,21,22,22,23,23,24,24,25,25,26,26,28,28,29,29,30,30,31,31,32,32,33,33,34,34,36,36,37,37,38,38,40,40,41,41,42,42,43,43,44,44,49,49,51,51,53,53,54,54],"right_children":[2,4,6,8,10,12,14,16,18,20,22,24,-1,26,28,30,32,34,36,38,40,42,44,46,48,50,52,-1,54,56,58,60,62,64,66,-1,68,70,72,-1,74,76,78,80,82,-1,-1,-1,-1,84,-1,86,-1,88,90,-1,-1,-1,-1,-1,-1,-1,-1,-1,-1,-1,-1,-1,-1,-1,-1,-1,-1,-1,-1,-1,-1,-1,-1,-1,-1,-1,-1,-1,-1,-1,-1,-1,-1,-1,-1],"split_conditions":[-4.6548538E-2,-2.4566196E-2,5.9379324E-2,1.4214435E-1,1.9341761E-1,1.9279342E-2,-2.9029068E-2,-3.3488348E-2,7.689493E-2,1.2175098E-2,-1.7280363E-2,-1.6168378E-2,-1.7225632E-3,2.111148E-3,1.4544055E-3,9.1495365E-4,-4.56639E-2,-2.9578034E-2,7.043076E-2,2.7562302E-2,-6.393925E-2,8.756921E-3,4.401098E-2,-3.099161E-2,1.00542225E-1,3.0856451E-2,1.01751745E-1,1.920673E-3,1.0606337E-2,6.973557E-4,-6.1369747E-2,-1.4077803E-1,6.638315E-2,1.08058125E-1,-1.2715003E-1,1.0083016E-3,1.4321333E-1,5.720499E-2,2.65955E-3,-5.711341E-4,5.7720803E-3,9.020966E-2,-1.6174537E-1,-7.6686814E-3,-1.05627656E-1,-1.2468927E-3,-3.5931036E-4,-6.271939E-4,-2.6223145E-4,3.0297441E-2,-5.0158944E-4,-3.369075E-2,2.2828578E-7,-4.0893476E-2,3.394685E-2,9.029088E-4,-1.2727657E-4,-1.9273987E-4,1.4022394E-3,-2.3064254E-4,5.909088E-4,2.0232282E-3,3.7099756E-4,3.2879045E-4,1.7848364E-3,2.9406974E-3,7.38231E-4,6.362483E-4,1.7441344E-3,8.392609E-4,-3.2162713E-4,2.34992E-4,-5.2018237E-4,1.7166417E-4,4.910599E-4,-2.8030126E-4,9.8093034E-5,1.0881706E-3,3.1001592E-4,4.9334354E-5,4.2310532E-4,1.3564928E-3,1.5296995E-4,5.0123555E-5,1.995714E-4,-8.06288E-4,-4.379191E-4,1.0550592E-4,8.1572874E-4,-2.4062463E-4,1.8239363E-4],"split_indices":[68,74,0,101,180,107,114,107,90,164,74,114,0,175,166,171,76,114,89,147,76,188,117,72,89,67,75,0,171,171,85,72,83,181,69,0,185,67,100,0,98,67,116,74,72,0,0,0,0,67,0,85,0,68,135,0,0,0,0,0,0,0,0,0,0,0,0,0,0,0,0,0,0,0,0,0,0,0,0,0,0,0,0,0,0,0,0,0,0,0,0],"split_type":[0,0,0,0,0,0,0,0,0,0,0,0,0,0,0,0,0,0,0,0,0,0,0,0,0,0,0,0,0,0,0,0,0,0,0,0,0,0,0,0,0,0,0,0,0,0,0,0,0,0,0,0,0,0,0,0,0,0,0,0,0,0,0,0,0,0,0,0,0,0,0,0,0,0,0,0,0,0,0,0,0,0,0,0,0,0,0,0,0,0,0],"sum_hessian":[1.026E3,5.41E2,4.85E2,3.54E2,1.87E2,3.25E2,1.6E2,2.36E2,1.18E2,1.39E2,4.8E1,2.6E2,6.5E1,1.14E2,4.6E1,1.78E2,5.8E1,4.5E1,7.3E1,2.5E1,1.14E2,2.2E1,2.6E1,2.52E2,8E0,8E0,1.06E2,1E0,4.5E1,2.7E1,1.51E2,4.5E1,1.3E1,3.1E1,1.4E1,7E0,6.6E1,7E0,1.8E1,3E0,1.11E2,4E0,1.8E1,7E0,1.9E1,2.51E2,1E0,5E0,3E0,2E0,6E0,1.05E2,1E0,5E0,4E1,2.3E1,4E0,2E0,1.49E2,4E0,4.1E1,1E1,3E0,1E0,3E1,1.3E1,1E0,2E0,6.4E1,4E0,3E0,4E0,1.4E1,6.6E1,4.5E1,1E0,3E0,4E0,1.4E1,3E0,4E0,1.6E1,3E0,1E0,1E0,9.9E1,6E0,3E0,2E0,3.3E1,7E0],"tree_param":{"num_deleted":"0","num_feature":"192","num_nodes":"91","size_leaf_vector":"1"}},{"base_weights":[2.2531645E-3,-9.926375E-2,1.1138942E-1,-1.2497723E-1,-2.6284143E-2,1.4266601E-1,5.141677E-2,-1.553881E-1,-1.0813406E-1,-5.8702394E-2,-2.0990894E-5,1.22551285E-1,1.8381798E-1,2.3965111E-2,6.4474225E-2,-1.7121937E-3,-1.348038E-3,-8.400215E-2,-1.1846932E-1,-6.446671E-2,4.3878984E-2,6.3102424E-2,-5.0705844E-3,1.3173817E-1,8.038989E-2,2.318302E-1,1.7081727E-1,-9.657862E-3,5.3561177E-2,1.6096683E-1,5.9676528E-2,-8.529308E-4,-2.1576439E-4,-5.617613E-4,-1.195597E-1,-6.762721E-2,6.2581553E-4,6.8757735E-4,-1.5378631E-4,7.216054E-4,8.905917E-5,-2.3568265E-2,1.0024456E-2,1.340967E-1,-7.919721E-3,9.653599E-2,2.4643423E-2,1.29338E-3,2.5737172E-3,2.2243299E-1,1.6055487E-1,-2.8157307E-2,4.0110413E-2,1.7840291E-3,4.3453023E-2,1.9242534E-3,1.7566368E-4,7.1519E-2,3.506872E-2,-1.2025454E-3,-5.9444277E-4,-3.1290963E-4,-7.183593E-4,4.840158E-5,-2.863317E-4,-1.7063599E-4,2.5705362E-4,-2.5787836E-4,1.3512821E-3,5.9844402E-5,-2.4816103E-4,8.0976385E-4,1.6747444E-3,-2.117299E-4,5.3848943E-4,2.3842924E-3,9.49678E-4,1.6517993E-3,7.8294834E-4,5.634636E-4,-3.5199808E-4,-5.9856386E-5,8.770287E-4,-1.6704029E-4,5.61526E-4,1.002579E-3,4.0141732E-4,1.3343255E-3,2.6145473E-4],"categories":[],"categories_nodes":[],"categories_segments":[],"categories_sizes":[],"default_left":[0,0,0,0,0,0,0,0,0,0,0,0,0,0,0,0,0,0,0,0,0,0,0,0,0,0,0,0,0,0,0,0,0,0,0,0,0,0,0,0,0,0,0,0,0,0,0,0,0,0,0,0,0,0,0,0,0,0,0,0,0,0,0,0,0,0,0,0,0,0,0,0,0,0,0,0,0,0,0,0,0,0,0,0,0,0,0,0,0],"id":11,"left_children":[1,3,5,7,9,11,13,15,17,19,21,23,25,27,29,-1,-1,31,33,35,37,39,41,43,45,47,49,51,53,55,57,-1,-1,-1,59,61,-1,-1,-1,-1,-1,63,65,67,69,71,73,-1,-1,75,77,79,81,-1,83,-1,-1,85,87,-1,-1,-1,-1,-1,-1,-1,-1,-1,-1,-1,-1,-1,-1,-1,-1,-1,-1,-1,-1,-1,-1,-1,-1,-1,-1,-1,-1,-1,-1],"loss_changes":[1.1633113E1,1.0175633E0,9.4178915E-1,1.8910837E-1,1.2174974E-1,2.522893E-1,6.1183423E-2,2.2867441E-2,5.5393696E-2,4.067263E-2,2.5819773E-2,7.6946735E-2,2.7188063E-2,5.823354E-2,4.5021236E-2,0E0,0E0,4.7678947E-3,5.5778027E-3,2.8725922E-2,6.9544218E-3,2.3028553E-3,2.1178003E-2,6.166935E-2,3.63248E-2,1.9068122E-2,1.0900974E-2,2.6908593E-2,3.136736E-2,1.9175634E-2,3.0713469E-2,0E0,0E0,0E0,2.4485588E-4,6.927967E-3,0E0,0E0,0E0,0E0,0E0,5.030712E-3,1.8278766E-2,3.3335686E-2,1.0882306E-3,2.286306E-2,1.5859157E-2,0E0,0E0,1.8244982E-3,1.6362786E-2,1.4480846E-2,1.8075556E-2,0E0,2.3857035E-2,0E0,0E0,6.450835E-2,3.0742615E-2,0E0,0E0,0E0,0E0,0E0,0E0,0E0,0E0,0E0,0E0,0E0,0E0,0E0,0E0,0E0,0E0,0E0,0E0,0E0,0E0,0E0,0E0,0E0,0E0,0E0,0E0,0E0,0E0,0E0,0E0],"parents":[2147483647,0,0,1,1,2,2,3,3,4,4,5,5,6,6,7,7,8,8,9,9,10,10,11,11,12,12,13,13,14,14,17,17,18,18,19,19,20,20,21,21,22,22,23,23,24,24,25,25,26,26,27,27,28,28,29,29,30,30,34,34,35,35,41,41,42,42,43,43,44,44,45,45,46,46,49,49,50,50,51,51,52,52,54,54,57,57,58,58],"right_children":[2,4,6,8,10,12,14,16,18,20,22,24,26,28,30,-1,-1,32,34,36,38,40,42,44,46,48,50,52,54,56,58,-1,-1,-1,60,62,-1,-1,-1,-1,-1,64,66,68,70,72,74,-1,-1,76,78,80,82,-1,84,-1,-1,86,88,-1,-1,-1,-1,-1,-1,-1,-1,-1,-1,-1,-1,-1,-1,-1,-1,-1,-1,-1,-1,-1,-1,-1,-1,-1,-1,-1,-1,-1,-1],"split_conditions":[1.670134E-1,8.428137E-2,-1.2315905E-1,2.7847487E-2,-2.908843E-2,1.201763E-1,1.00087576E-1,2.6199464E-2,6.9973823E-3,1.218238E-1,-6.982183E-2,-3.3488348E-2,3.6053285E-3,1.8095396E-2,4.5948133E-2,-1.7121937E-3,-1.348038E-3,9.07435E-2,1.5313849E-3,9.398709E-2,8.9499764E-2,1.0280665E-1,5.8113314E-2,-2.990257E-3,2.0920893E-2,1.4781952E-3,1.3957953E-1,-4.7743812E-2,3.836988E-2,9.653652E-2,6.1158694E-2,-8.529308E-4,-2.1576439E-4,-5.617613E-4,1.8609375E-2,2.111148E-3,6.2581553E-4,6.8757735E-4,-1.5378631E-4,7.216054E-4,8.905917E-5,3.7866384E-3,7.7045165E-2,-3.8958736E-2,1.5069738E-1,-4.8303716E-2,-9.30021E-2,1.29338E-3,2.5737172E-3,3.5198197E-2,7.071432E-2,3.276653E-3,3.8367119E-3,1.7840291E-3,-3.1550065E-2,1.9242534E-3,1.7566368E-4,5.2824847E-2,1.09642535E-1,-1.2025454E-3,-5.9444277E-4,-3.1290963E-4,-7.183593E-4,4.840158E-5,-2.863317E-4,-1.7063599E-4,2.5705362E-4,-2.5787836E-4,1.3512821E-3,5.9844402E-5,-2.4816103E-4,8.0976385E-4,1.6747444E-3,-2.117299E-4,5.3848943E-4,2.3842924E-3,9.49678E-4,1.6517993E-3,7.8294834E-4,5.634636E-4,-3.5199808E-4,-5.9856386E-5,8.770287E-4,-1.6704029E-4,5.61526E-4,1.002579E-3,4.0141732E-4,1.3343255E-3,2.6145473E-4],"split_indices":[180,0,72,0,114,165,115,0,162,127,79,107,144,154,166,0,0,75,69,64,64,65,182,109,125,144,64,69,90,64,95,0,0,0,132,175,0,0,0,0,0,191,64,79,64,80,69,0,0,71,182,100,98,0,114,0,0,130,66,0,0,0,0,0,0,0,0,0,0,0,0,0,0,0,0,0,0,0,0,0,0,0,0,0,0,0,0,0,0],"split_type":[0,0,0,0,0,0,0,0,0,0,0,0,0,0,0,0,0,0,0,0,0,0,0,0,0,0,0,0,0,0,0,0,0,0,0,0,0,0,0,0,0,0,0,0,0,0,0,0,0,0,0,0,0,0,0,0,0,0,0,0,0,0,0,0,0,0,0,0,0,0,0,0,0,0,0,0,0,0,0,0,0,0,0,0,0,0,0,0,0],"sum_hessian":[1.048E3,5.43E2,5.05E2,4.01E2,1.42E2,3.31E2,1.74E2,1.4E2,2.61E2,6.3E1,7.9E1,2.25E2,1.06E2,5.7E1,1.17E2,7.5E1,6.5E1,8.1E1,1.8E2,6E1,3E0,5E0,7.4E1,1.83E2,4.2E1,1.9E1,8.7E1,2.7E1,3E1,4E0,1.13E2,7.9E1,2E0,4E0,1.76E2,5.9E1,1E0,2E0,1E0,4E0,1E0,3.3E1,4.1E1,1.8E2,3E0,3.2E1,1E1,5E0,1.4E1,1.1E1,7.6E1,2E1,7E0,1E0,2.9E1,3E0,1E0,7.5E1,3.8E1,1.73E2,3E0,7E0,5.2E1,5E0,2.8E1,1.5E1,2.6E1,1E0,1.79E2,2E0,1E0,2.8E1,4E0,4E0,6E0,9E0,2E0,7.1E1,5E0,1E0,1.9E1,4E0,3E0,5E0,2.4E1,3.8E1,3.7E1,2E0,3.6E1],"tree_param":{"num_deleted":"0","num_feature":"192","num_nodes":"89","size_leaf_vector":"1"}},{"base_weights":[-3.487618E-3,-1.0588004E-1,1.0396062E-1,-1.3196343E-1,-5.1915843E-2,4.0478367E-2,1.4383857E-1,-1.6971489E-3,-1.20840825E-1,-2.5623284E-2,-7.8827634E-2,5.247403E-2,6.896306E-3,1.2716821E-1,1.8154792E-1,-1.2494808E-1,-9.385105E-2,-4.1363865E-2,5.668913E-3,-2.2071048E-4,-7.991623E-4,6.333463E-2,2.663444E-3,3.004397E-4,1.1672726E-3,-1.9513195E-2,1.2861003E-1,2.0847386E-1,1.6003482E-1,-1.251703E-3,-3.5917602E-4,-3.830386E-4,-9.722836E-2,-1.2170382E-2,-5.2622445E-2,2.9465167E-2,-2.1678101E-2,1.5349416E-1,5.7189044E-2,-4.0405948E-2,2.2924554E-2,1.1838036E-2,-3.433546E-2,-4.5777706E-5,-2.4692022E-4,1.1234511E-1,1.475734E-1,2.2665627E-1,1.348975E-1,1.6162638E-1,3.624965E-4,-1.7433449E-4,-9.89138E-4,-3.309684E-4,6.934644E-4,-6.2047096E-4,-1.0124069E-4,5.861784E-4,8.234817E-5,5.357291E-4,-3.7376172E-4,1.9238534E-3,3.7510798E-4,1.2597321E-3,4.928793E-4,-4.731098E-4,7.417157E-5,5.133046E-4,-7.773811E-5,1.7644493E-4,-4.3379577E-4,-5.874119E-4,-5.0246632E-5,-1.3961419E-5,1.1725978E-3,1.6213945E-3,1.3125619E-3,7.005318E-4,2.3566193E-3,1.5240596E-3,7.053332E-4,1.6935002E-3,1.1533634E-3],"categories":[],"categories_nodes":[],"categories_segments":[],"categories_sizes":[],"default_left":[0,0,0,0,0,0,0,0,0,0,0,0,0,0,0,0,0,0,0,0,0,0,0,0,0,0,0,0,0,0,0,0,0,0,0,0,0,0,0,0,0,0,0,0,0,0,0,0,0,0,0,0,0,0,0,0,0,0,0,0,0,0,0,0,0,0,0,0,0,0,0,0,0,0,0,0,0,0,0,0,0,0,0],"id":12,"left_children":[1,3,5,7,9,11,13,-1,15,17,19,21,23,25,27,29,31,33,35,-1,-1,37,39,41,-1,43,45,47,49,-1,-1,-1,51,53,55,57,59,61,63,65,67,69,71,-1,-1,73,75,77,79,81,-1,-1,-1,-1,-1,-1,-1,-1,-1,-1,-1,-1,-1,-1,-1,-1,-1,-1,-1,-1,-1,-1,-1,-1,-1,-1,-1,-1,-1,-1,-1,-1,-1],"loss_changes":[1.1430964E1,7.419753E-1,1.2776694E0,1.2981415E-1,1.2180659E-1,7.899737E-2,1.7241621E-1,0E0,1.9312382E-2,4.4564646E-2,3.549695E-3,7.827243E-2,3.835974E-2,4.8825502E-2,2.050829E-2,2.527237E-4,3.9673448E-3,1.90802E-2,2.08122E-2,0E0,0E0,5.7157725E-2,2.4487399E-2,2.0786831E-2,0E0,1.1900952E-4,5.035162E-2,2.026081E-2,5.1738024E-3,0E0,0E0,0E0,3.3862293E-3,3.30006E-2,1.6594723E-2,1.0038955E-2,1.9721787E-2,2.4358585E-2,5.520335E-2,3.3228938E-3,1.6967319E-2,1.3269538E-2,9.004415E-3,0E0,0E0,6.7803025E-2,1.7728806E-3,2.439022E-2,5.194843E-4,1.3172626E-4,0E0,0E0,0E0,0E0,0E0,0E0,0E0,0E0,0E0,0E0,0E0,0E0,0E0,0E0,0E0,0E0,0E0,0E0,0E0,0E0,0E0,0E0,0E0,0E0,0E0,0E0,0E0,0E0,0E0,0E0,0E0,0E0,0E0],"parents":[2147483647,0,0,1,1,2,2,3,3,4,4,5,5,6,6,8,8,9,9,10,10,11,11,12,12,13,13,14,14,15,15,16,16,17,17,18,18,21,21,22,22,23,23,25,25,26,26,27,27,28,28,32,32,33,33,34,34,35,35,36,36,37,37,38,38,39,39,40,40,41,41,42,42,45,45,46,46,47,47,48,48,49,49],"right_children":[2,4,6,8,10,12,14,-1,16,18,20,22,24,26,28,30,32,34,36,-1,-1,38,40,42,-1,44,46,48,50,-1,-1,-1,52,54,56,58,60,62,64,66,68,70,72,-1,-1,74,76,78,80,82,-1,-1,-1,-1,-1,-1,-1,-1,-1,-1,-1,-1,-1,-1,-1,-1,-1,-1,-1,-1,-1,-1,-1,-1,-1,-1,-1,-1,-1,-1,-1,-1,-1],"split_conditions":[8.4808536E-2,5.9379324E-2,9.110424E-2,2.6199464E-2,2.7964007E-2,-9.104984E-2,2.757767E-1,-1.6971489E-3,6.3515745E-2,7.5111547E-3,-4.3772653E-2,9.6770495E-2,1.198269E-2,-6.1369747E-2,-1.7258483E-1,6.0184333E-2,3.991384E-3,-5.018163E-2,-5.5988424E-2,-2.2071048E-4,-7.991623E-4,-6.1730444E-2,3.8737476E-2,2.5972769E-2,1.1672726E-3,1.3332903E-1,8.989055E-2,-3.2210007E-2,-8.161962E-2,-1.251703E-3,-3.5917602E-4,-3.830386E-4,6.1844148E-2,-6.361937E-2,-3.369075E-2,4.4601146E-2,9.251539E-3,1.0376719E-2,-1.229249E-1,1.206359E-1,6.284167E-2,-5.7232942E-2,6.0014136E-2,-4.5777706E-5,-2.4692022E-4,-7.614991E-2,2.7457628E-2,7.0239604E-4,1.4093639E-2,8.7237805E-3,3.624965E-4,-1.7433449E-4,-9.89138E-4,-3.309684E-4,6.934644E-4,-6.2047096E-4,-1.0124069E-4,5.861784E-4,8.234817E-5,5.357291E-4,-3.7376172E-4,1.9238534E-3,3.7510798E-4,1.2597321E-3,4.928793E-4,-4.731098E-4,7.417157E-5,5.133046E-4,-7.773811E-5,1.7644493E-4,-4.3379577E-4,-5.874119E-4,-5.0246632E-5,-1.3961419E-5,1.1725978E-3,1.6213945E-3,1.3125619E-3,7.005318E-4,2.3566193E-3,1.5240596E-3,7.053332E-4,1.6935002E-3,1.1533634E-3],"split_indices":[64,0,136,0,81,108,180,0,188,100,86,75,100,85,77,64,134,85,106,0,0,91,137,73,0,64,67,86,106,0,0,0,126,91,85,95,125,100,108,64,95,87,95,0,0,80,150,188,100,154,0,0,0,0,0,0,0,0,0,0,0,0,0,0,0,0,0,0,0,0,0,0,0,0,0,0,0,0,0,0,0,0,0],"split_type":[0,0,0,0,0,0,0,0,0,0,0,0,0,0,0,0,0,0,0,0,0,0,0,0,0,0,0,0,0,0,0,0,0,0,0,0,0,0,0,0,0,0,0,0,0,0,0,0,0,0,0,0,0,0,0,0,0,0,0,0,0,0,0,0,0,0,0,0,0,0,0,0,0,0,0,0,0,0,0,0,0,0,0],"sum_hessian":[1.037E3,5.31E2,5.06E2,3.57E2,1.74E2,1.96E2,3.1E2,7.8E1,2.79E2,8.9E1,8.5E1,1.44E2,5.2E1,2.18E2,9.2E1,2.39E2,4E1,5.9E1,3E1,2E0,8.3E1,1.18E2,2.6E1,5E1,2E0,2E0,2.16E2,3.7E1,5.5E1,2.38E2,1E0,3E0,3.7E1,1.7E1,4.2E1,1.6E1,1.4E1,6E0,1.12E2,8E0,1.8E1,3.8E1,1.2E1,1E0,1E0,1.2E2,9.6E1,2.8E1,9E0,5.4E1,1E0,1E0,3.6E1,1.4E1,3E0,3.4E1,8E0,6E0,1E1,2E0,1.2E1,4E0,2E0,1E1,1.02E2,7E0,1E0,9E0,9E0,3.5E1,3E0,6E0,6E0,5E0,1.15E2,4.6E1,5E1,2E0,2.6E1,6E0,3E0,4.4E1,1E1],"tree_param":{"num_deleted":"0","num_feature":"192","num_nodes":"83","size_leaf_vector":"1"}},{"base_weights":[-1.3636503E-3,9.901154E-2,-1.047117E-1,1.3420835E-1,3.3269852E-2,-1.327307E-1,-5.001194E-2,1.0527184E-1,1.5859164E-1,5.5623066E-2,1.2878111E-2,-1.67971E-3,-1.2133728E-1,-6.6004105E-2,4.812111E-3,9.8715395E-2,1.7681563E-1,1.966776E-1,1.4647816E-1,1.4053984E-3,4.9837437E-2,1.8106759E-2,-5.693404E-2,-1.9070304E-4,-1.2166353E-3,-7.765096E-2,-4.2792883E-2,-4.885143E-3,1.9150251E-3,1.1050299E-1,4.2233393E-2,2.7513885E-4,2.039246E-1,2.1330489E-1,1.0142691E-3,1.4759883E-1,-5.7686044E-5,3.0550811E-2,6.7068E-2,7.346332E-2,1.3334962E-2,9.129077E-5,-6.9466076E-4,-3.0154103E-4,-7.840491E-4,-5.6005727E-2,1.9217532E-2,8.249228E-4,-1.1837768E-2,-3.5708453E-4,1.132604E-3,4.20483E-5,7.237591E-4,2.4966085E-3,1.0825614E-3,8.6469547E-4,2.2278994E-3,3.5829633E-4,1.4894925E-3,-3.71313E-4,3.8871344E-4,1.1037772E-3,4.8730982E-4,9.550119E-5,9.7118574E-4,-4.0632777E-4,1.8699154E-4,1.2838394E-5,-6.081552E-4,-1.1507486E-4,8.4503397E-4,1.563968E-4,-2.9243156E-4],"categories":[],"categories_nodes":[],"categories_segments":[],"categories_sizes":[],"default_left":[0,0,0,0,0,0,0,0,0,0,0,0,0,0,0,0,0,0,0,0,0,0,0,0,0,0,0,0,0,0,0,0,0,0,0,0,0,0,0,0,0,0,0,0,0,0,0,0,0,0,0,0,0,0,0,0,0,0,0,0,0,0,0,0,0,0,0,0,0,0,0,0,0],"id":13,"left_children":[1,3,5,7,9,11,13,15,17,19,21,-1,23,25,27,29,31,33,35,-1,37,39,41,-1,-1,43,45,47,-1,49,51,-1,53,55,-1,57,-1,59,61,63,65,-1,-1,-1,-1,67,69,-1,71,-1,-1,-1,-1,-1,-1,-1,-1,-1,-1,-1,-1,-1,-1,-1,-1,-1,-1,-1,-1,-1,-1,-1,-1],"loss_changes":[1.0653661E1,1.2010751E0,7.688737E-1,2.2249222E-1,8.26989E-2,1.13722324E-1,1.5199628E-1,5.665922E-2,5.515766E-2,3.5738677E-2,3.6438145E-2,0E0,6.2217712E-3,3.290236E-2,7.3350884E-2,9.3203664E-2,4.295823E-2,4.3299317E-2,2.507925E-2,0E0,2.5533542E-2,2.3058044E-2,6.4294953E-3,0E0,0E0,7.8701973E-4,3.9584987E-2,2.4669124E-2,0E0,5.282724E-2,3.064515E-2,0E0,1.6727865E-2,2.1638751E-2,0E0,1.5944958E-2,0E0,2.453255E-2,2.8770521E-2,9.655688E-3,2.5366727E-2,0E0,0E0,0E0,0E0,1.0824561E-2,1.9025607E-2,0E0,1.8152812E-2,0E0,0E0,0E0,0E0,0E0,0E0,0E0,0E0,0E0,0E0,0E0,0E0,0E0,0E0,0E0,0E0,0E0,0E0,0E0,0E0,0E0,0E0,0E0,0E0],"parents":[2147483647,0,0,1,1,2,2,3,3,4,4,5,5,6,6,7,7,8,8,9,9,10,10,12,12,13,13,14,14,15,15,16,16,17,17,18,18,20,20,21,21,22,22,25,25,26,26,27,27,29,29,30,30,32,32,33,33,35,35,37,37,38,38,39,39,40,40,45,45,46,46,48,48],"right_children":[2,4,6,8,10,12,14,16,18,20,22,-1,24,26,28,30,32,34,36,-1,38,40,42,-1,-1,44,46,48,-1,50,52,-1,54,56,-1,58,-1,60,62,64,66,-1,-1,-1,-1,68,70,-1,72,-1,-1,-1,-1,-1,-1,-1,-1,-1,-1,-1,-1,-1,-1,-1,-1,-1,-1,-1,-1,-1,-1,-1,-1],"split_conditions":[-5.2361816E-2,-2.6723698E-2,9.7908534E-2,9.691715E-2,2.3147428E-2,-4.44483E-3,-2.6460357E-2,-5.161759E-2,-1.7258483E-1,1.295198E-2,2.428732E-2,-1.67971E-3,-2.5893692E-3,4.2852543E-2,-5.0118554E-2,-5.5483535E-2,-4.902278E-2,-2.9971248E-2,-1.5924653E-1,1.4053984E-3,-1.8280644E-2,7.0142373E-4,5.2662216E-2,-1.9070304E-4,-1.2166353E-3,-4.3772653E-2,2.0307384E-2,-7.114428E-2,1.9150251E-3,3.9048493E-5,-3.2430615E-2,2.7513885E-4,1.1328381E-1,3.7972555E-3,1.0142691E-3,7.351488E-5,-5.7686044E-5,5.139485E-4,-6.588269E-2,6.86039E-2,8.885171E-4,9.129077E-5,-6.9466076E-4,-3.0154103E-4,-7.840491E-4,-1.1611464E-1,7.275624E-3,8.249228E-4,9.521079E-2,-3.5708453E-4,1.132604E-3,4.20483E-5,7.237591E-4,2.4966085E-3,1.0825614E-3,8.6469547E-4,2.2278994E-3,3.5829633E-4,1.4894925E-3,-3.71313E-4,3.8871344E-4,1.1037772E-3,4.8730982E-4,9.550119E-5,9.7118574E-4,-4.0632777E-4,1.8699154E-4,1.2838394E-5,-6.081552E-4,-1.1507486E-4,8.4503397E-4,1.563968E-4,-2.9243156E-4],"split_indices":[103,74,1,181,170,1,114,120,77,125,171,0,71,101,80,80,76,86,112,0,123,178,65,0,0,86,191,79,0,178,86,0,101,188,0,171,0,178,69,67,178,0,0,0,0,119,100,0,89,0,0,0,0,0,0,0,0,0,0,0,0,0,0,0,0,0,0,0,0,0,0,0,0],"split_type":[0,0,0,0,0,0,0,0,0,0,0,0,0,0,0,0,0,0,0,0,0,0,0,0,0,0,0,0,0,0,0,0,0,0,0,0,0,0,0,0,0,0,0,0,0,0,0,0,0,0,0,0,0,0,0,0,0,0,0,0,0,0,0,0,0,0,0,0,0,0,0,0,0],"sum_hessian":[1.025E3,5.2E2,5.05E2,3.38E2,1.82E2,3.33E2,1.72E2,1.57E2,1.81E2,8.6E1,9.6E1,7.8E1,2.55E2,1.33E2,3.9E1,1.46E2,1.1E1,4E1,1.41E2,4E0,8.2E1,9E1,6E0,1E0,2.54E2,8.7E1,4.6E1,3.8E1,1E0,1.2E2,2.6E1,2E0,9E0,3.3E1,7E0,1.4E2,1E0,4E1,4.2E1,6E0,8.4E1,1E0,5E0,2E0,8.5E1,3.8E1,8E0,2E0,3.6E1,2E0,1.18E2,1.2E1,1.4E1,5E0,4E0,3E0,3E1,2E0,1.38E2,4E0,3.6E1,1.1E1,3.1E1,2E0,4E0,7E0,7.7E1,3E0,3.5E1,6E0,2E0,1.4E1,2.2E1],"tree_param":{"num_deleted":"0","num_feature":"192","num_nodes":"73","size_leaf_vector":"1"}},{"base_weights":[6.226065E-5,-1.0345265E-1,1.03577055E-1,-1.3011733E-1,-4.9031354E-2,1.3936065E-1,4.9479555E-2,-1.6620284E-3,-1.1905763E-1,-7.243975E-2,-9.2099875E-4,1.19174786E-1,1.7703372E-1,6.842897E-2,1.5521396E-2,-1.2380584E-3,-9.92954E-2,-7.423388E-2,6.425149E-4,1.9054499E-3,-7.866653E-3,1.2588656E-1,5.8843236E-2,1.5530494E-1,2.0663394E-1,7.615892E-2,8.593178E-3,-1.5415471E-2,4.523568E-2,-1.0069609E-1,-1.1128776E-4,-4.9541622E-2,-7.9387677E-4,-2.8555976E-2,1.6308207E-2,-2.0170698E-2,1.2764096E-1,-2.1084309E-2,8.359159E-2,1.5853138E-1,6.727537E-4,2.101505E-1,3.298579E-4,1.7107438E-1,7.119733E-2,4.4065766E-2,-2.3892809E-2,1.891196E-2,-3.0665997E-2,6.4570475E-3,7.024535E-2,-1.6721644E-4,-1.0194151E-3,1.0790993E-4,-5.611443E-4,7.1986445E-4,-3.4505248E-4,3.221596E-5,7.0627657E-4,-5.1211864E-5,-2.513486E-4,2.5255865E-4,1.2984949E-3,8.418295E-5,-5.339301E-4,5.1666907E-4,1.3350903E-3,1.5999612E-3,3.5323657E-4,2.6180819E-3,1.7226526E-3,1.9524669E-3,3.7192545E-4,8.478785E-4,3.1676667E-4,6.3827826E-4,8.346751E-5,3.1978457E-4,-4.4424375E-4,3.3437953E-4,-1.849952E-4,-4.4583736E-4,6.221883E-5,3.9296015E-4,-2.3450593E-4,1.496945E-3,4.5640554E-4],"categories":[],"categories_nodes":[],"categories_segments":[],"categories_sizes":[],"default_left":[0,0,0,0,0,0,0,0,0,0,0,0,0,0,0,0,0,0,0,0,0,0,0,0,0,0,0,0,0,0,0,0,0,0,0,0,0,0,0,0,0,0,0,0,0,0,0,0,0,0,0,0,0,0,0,0,0,0,0,0,0,0,0,0,0,0,0,0,0,0,0,0,0,0,0,0,0,0,0,0,0,0,0,0,0,0,0],"id":14,"left_children":[1,3,5,7,9,11,13,-1,15,17,19,21,23,25,27,-1,29,31,-1,-1,33,35,37,39,41,43,45,47,49,51,-1,53,-1,55,57,59,61,63,65,67,-1,69,-1,71,73,75,77,79,81,83,85,-1,-1,-1,-1,-1,-1,-1,-1,-1,-1,-1,-1,-1,-1,-1,-1,-1,-1,-1,-1,-1,-1,-1,-1,-1,-1,-1,-1,-1,-1,-1,-1,-1,-1,-1,-1],"loss_changes":[1.0843908E1,7.278905E-1,9.7262144E-1,1.1550522E-1,1.8913254E-1,2.1008301E-1,1.2956586E-1,0E0,1.2385368E-2,3.2482028E-2,7.597092E-2,7.398391E-2,3.479886E-2,5.947411E-2,6.8723075E-2,0E0,5.7950616E-3,1.0320008E-2,0E0,0E0,2.7974585E-2,4.8698187E-2,4.528012E-2,7.512212E-3,1.8104434E-2,4.1977048E-2,1.9490648E-2,1.9949876E-2,3.6400363E-2,4.0474534E-3,0E0,9.329736E-3,0E0,2.0428533E-2,1.825476E-2,9.540445E-5,3.697014E-2,6.1686225E-3,2.0193182E-2,5.3567886E-3,0E0,3.3182144E-2,0E0,8.919448E-3,5.6932926E-2,5.1142946E-3,1.1744748E-2,7.1398527E-3,1.3625689E-2,1.6635692E-2,3.8128957E-2,0E0,0E0,0E0,0E0,0E0,0E0,0E0,0E0,0E0,0E0,0E0,0E0,0E0,0E0,0E0,0E0,0E0,0E0,0E0,0E0,0E0,0E0,0E0,0E0,0E0,0E0,0E0,0E0,0E0,0E0,0E0,0E0,0E0,0E0,0E0,0E0],"parents":[2147483647,0,0,1,1,2,2,3,3,4,4,5,5,6,6,8,8,9,9,10,10,11,11,12,12,13,13,14,14,16,16,17,17,20,20,21,21,22,22,23,23,24,24,25,25,26,26,27,27,28,28,29,29,31,31,33,33,34,34,35,35,36,36,37,37,38,38,39,39,41,41,43,43,44,44,45,45,46,46,47,47,48,48,49,49,50,50],"right_children":[2,4,6,8,10,12,14,-1,16,18,20,22,24,26,28,-1,30,32,-1,-1,34,36,38,40,42,44,46,48,50,52,-1,54,-1,56,58,60,62,64,66,68,-1,70,-1,72,74,76,78,80,82,84,86,-1,-1,-1,-1,-1,-1,-1,-1,-1,-1,-1,-1,-1,-1,-1,-1,-1,-1,-1,-1,-1,-1,-1,-1,-1,-1,-1,-1,-1,-1,-1,-1,-1,-1,-1,-1],"split_conditions":[1.5028676E-1,5.9379324E-2,-7.834111E-2,2.6199464E-2,2.1128375E-2,1.1881401E-1,-6.015227E-2,-1.6620284E-3,4.6125993E-2,4.15001E-2,4.0752508E-2,7.816558E-2,1.7505307E-1,2.1803921E-2,1.1537634E-2,-1.2380584E-3,8.10236E-2,1.0516681E-2,6.425149E-4,1.9054499E-3,4.2337887E-3,-6.1369747E-2,-3.261899E-2,2.4344017E-1,-1.5748817E-1,5.8565315E-2,-6.865792E-2,4.321576E-2,-1.0106223E-2,5.7416618E-2,-1.1128776E-4,2.8693527E-3,-7.9387677E-4,7.283356E-3,8.1005864E-2,1.2717545E-1,4.8352778E-4,1.0211639E-1,-2.7555823E-2,3.9733488E-2,6.727537E-4,2.0554177E-3,3.298579E-4,-6.513505E-2,7.416183E-2,-2.2291109E-2,1.0803767E-1,-9.016463E-2,7.736796E-2,2.9296642E-2,4.138413E-2,-1.6721644E-4,-1.0194151E-3,1.0790993E-4,-5.611443E-4,7.1986445E-4,-3.4505248E-4,3.221596E-5,7.0627657E-4,-5.1211864E-5,-2.513486E-4,2.5255865E-4,1.2984949E-3,8.418295E-5,-5.339301E-4,5.1666907E-4,1.3350903E-3,1.5999612E-3,3.5323657E-4,2.6180819E-3,1.7226526E-3,1.9524669E-3,3.7192545E-4,8.478785E-4,3.1676667E-4,6.3827826E-4,8.346751E-5,3.1978457E-4,-4.4424375E-4,3.3437953E-4,-1.849952E-4,-4.4583736E-4,6.221883E-5,3.9296015E-4,-2.3450593E-4,1.496945E-3,4.5640554E-4],"split_indices":[180,0,84,0,137,165,68,0,92,71,67,182,141,98,74,0,161,172,0,0,178,85,86,177,104,90,106,183,96,182,0,131,0,125,83,66,144,66,86,187,0,178,0,68,182,74,66,72,182,117,161,0,0,0,0,0,0,0,0,0,0,0,0,0,0,0,0,0,0,0,0,0,0,0,0,0,0,0,0,0,0,0,0,0,0,0,0],"split_type":[0,0,0,0,0,0,0,0,0,0,0,0,0,0,0,0,0,0,0,0,0,0,0,0,0,0,0,0,0,0,0,0,0,0,0,0,0,0,0,0,0,0,0,0,0,0,0,0,0,0,0,0,0,0,0,0,0,0,0,0,0,0,0,0,0,0,0,0,0,0,0,0,0,0,0,0,0,0,0,0,0,0,0,0,0,0,0],"sum_hessian":[1.01E3,5.05E2,5.05E2,3.38E2,1.67E2,3.03E2,2.02E2,7.6E1,2.62E2,1.12E2,5.5E1,2E2,1.03E2,1.29E2,7.3E1,2.07E2,5.5E1,1.11E2,1E0,1E0,5.4E1,1.79E2,2.1E1,6.3E1,4E1,1.14E2,1.5E1,3.6E1,3.7E1,5.4E1,1E0,2.1E1,9E1,2.9E1,2.5E1,2E0,1.77E2,5E0,1.6E1,6E1,3E0,3.9E1,1E0,4E0,1.1E2,7E0,8E0,1.1E1,2.5E1,1.5E1,2.2E1,1E0,5.3E1,2E0,1.9E1,1E0,2.8E1,2.1E1,4E0,1E0,1E0,4E0,1.73E2,3E0,2E0,1.1E1,5E0,5.9E1,1E0,1.4E1,2.5E1,3E0,1E0,8.1E1,2.9E1,4E0,3E0,2E0,6E0,8E0,3E0,1.8E1,7E0,7E0,8E0,4E0,1.8E1],"tree_param":{"num_deleted":"0","num_feature":"192","num_nodes":"87","size_leaf_vector":"1"}},{"base_weights":[8.153589E-4,-1.0036863E-1,9.965826E-2,-1.2743305E-1,-4.7380492E-2,1.394516E-1,3.851862E-2,-1.1781656E-1,-1.6345928E-3,-7.0806056E-2,2.8753126E-4,1.2157264E-1,1.738814E-1,6.3760886E-3,5.2313484E-2,-1.2079475E-1,-8.2505174E-2,-7.2533585E-2,6.3930237E-4,1.8959227E-3,-6.359785E-3,1.24532804E-1,1.7193209E-4,2.074868E-1,1.5630798E-1,-2.6542677E-2,1.9118734E-2,-2.5155982E-2,5.7664454E-2,-1.210149E-3,-3.3537514E-4,-8.961419E-2,-2.4556546E-4,-2.4189666E-2,-7.451113E-2,1.5280947E-2,-2.500301E-2,1.13447264E-1,1.477185E-3,1.2552315E-2,-3.086499E-4,2.3085804E-1,1.3064711E-1,5.890956E-4,1.5822188E-3,3.92337E-2,-4.8138335E-2,2.5519507E-2,-5.446926E-4,3.1794282E-4,-4.3367833E-4,1.18450664E-1,4.7903303E-2,-2.1910861E-4,-9.5587655E-4,1.719819E-4,-4.918314E-4,-7.518743E-4,-3.9722026E-6,-1.609678E-4,2.933982E-4,3.0953734E-4,-3.443933E-4,1.1548497E-3,-2.0140831E-4,1.5553183E-4,2.7441977E-6,8.8751316E-4,2.4693273E-3,5.213298E-4,1.4375901E-3,6.5005705E-4,-3.192716E-4,-5.294223E-4,7.1561706E-5,7.355344E-5,5.0338876E-4,1.5478784E-3,3.9236835E-4,1.0287514E-3,3.8271688E-4],"categories":[],"categories_nodes":[],"categories_segments":[],"categories_sizes":[],"default_left":[0,0,0,0,0,0,0,0,0,0,0,0,0,0,0,0,0,0,0,0,0,0,0,0,0,0,0,0,0,0,0,0,0,0,0,0,0,0,0,0,0,0,0,0,0,0,0,0,0,0,0,0,0,0,0,0,0,0,0,0,0,0,0,0,0,0,0,0,0,0,0,0,0,0,0,0,0,0,0,0,0],"id":15,"left_children":[1,3,5,7,9,11,13,15,-1,17,19,21,23,25,27,29,31,33,-1,-1,35,37,39,41,43,45,47,49,51,-1,-1,53,-1,55,57,59,61,63,-1,65,-1,67,69,-1,-1,71,73,75,-1,-1,-1,77,79,-1,-1,-1,-1,-1,-1,-1,-1,-1,-1,-1,-1,-1,-1,-1,-1,-1,-1,-1,-1,-1,-1,-1,-1,-1,-1,-1,-1],"loss_changes":[1.0261354E1,7.210469E-1,1.2573295E0,9.6800804E-2,1.9320083E-1,1.7214966E-1,9.100723E-2,1.8217802E-2,0E0,3.163743E-2,7.419113E-2,7.5445175E-2,2.9576778E-2,2.693421E-2,6.1143935E-2,6.480217E-4,7.6863766E-3,9.191871E-3,0E0,0E0,2.3378894E-2,3.5932302E-2,2.692921E-3,2.9101849E-2,4.287243E-3,2.745736E-2,2.3056952E-2,1.1750547E-2,7.442719E-2,0E0,0E0,6.398484E-3,0E0,7.0524197E-3,5.4836273E-3,1.2382936E-2,1.7434826E-2,4.1252494E-2,0E0,1.7995364E-4,0E0,3.2908082E-2,2.800122E-3,0E0,0E0,1.1245238E-2,4.097674E-3,1.9015135E-2,0E0,0E0,0E0,4.5737922E-2,5.8539987E-2,0E0,0E0,0E0,0E0,0E0,0E0,0E0,0E0,0E0,0E0,0E0,0E0,0E0,0E0,0E0,0E0,0E0,0E0,0E0,0E0,0E0,0E0,0E0,0E0,0E0,0E0,0E0,0E0],"parents":[2147483647,0,0,1,1,2,2,3,3,4,4,5,5,6,6,7,7,9,9,10,10,11,11,12,12,13,13,14,14,15,15,16,16,17,17,20,20,21,21,22,22,23,23,24,24,25,25,26,26,27,27,28,28,31,31,33,33,34,34,35,35,36,36,37,37,39,39,41,41,42,42,45,45,46,46,47,47,51,51,52,52],"right_children":[2,4,6,8,10,12,14,16,-1,18,20,22,24,26,28,30,32,34,-1,-1,36,38,40,42,44,46,48,50,52,-1,-1,54,-1,56,58,60,62,64,-1,66,-1,68,70,-1,-1,72,74,76,-1,-1,-1,78,80,-1,-1,-1,-1,-1,-1,-1,-1,-1,-1,-1,-1,-1,-1,-1,-1,-1,-1,-1,-1,-1,-1,-1,-1,-1,-1,-1,-1],"split_conditions":[1.5028676E-1,9.7908534E-2,-1.2315905E-1,1.9279342E-2,-2.8585263E-2,1.4350665E-1,3.431438E-2,7.248315E-3,-1.6345928E-3,4.15001E-2,1.4544055E-3,2.300469E-2,7.7102825E-2,1.3983749E-2,3.8696527E-3,1.015678E-1,1.01274505E-1,2.111148E-3,6.3930237E-4,1.8959227E-3,5.9238184E-2,4.747249E-2,7.479735E-2,4.5306202E-2,-3.0508304E-2,1.1442754E-2,-5.559623E-2,7.929583E-2,4.5948133E-2,-1.210149E-3,-3.3537514E-4,2.9080776E-2,-2.4556546E-4,7.138595E-2,1.00682825E-1,5.5045724E-2,-2.929441E-2,1.00767694E-1,1.477185E-3,5.5707425E-2,-3.086499E-4,1.985103E-3,-1.4050864E-1,5.890956E-4,1.5822188E-3,-4.6548538E-2,-1.21786766E-1,4.0895507E-2,-5.446926E-4,3.1794282E-4,-4.3367833E-4,5.545462E-2,1.4377344E-2,-2.1910861E-4,-9.5587655E-4,1.719819E-4,-4.918314E-4,-7.518743E-4,-3.9722026E-6,-1.609678E-4,2.933982E-4,3.0953734E-4,-3.443933E-4,1.1548497E-3,-2.0140831E-4,1.5553183E-4,2.7441977E-6,8.8751316E-4,2.4693273E-3,5.213298E-4,1.4375901E-3,6.5005705E-4,-3.192716E-4,-5.294223E-4,7.1561706E-5,7.355344E-5,5.0338876E-4,1.5478784E-3,3.9236835E-4,1.0287514E-3,3.8271688E-4],"split_indices":[180,1,72,107,114,101,191,73,0,71,166,125,90,164,128,66,89,175,0,0,95,131,65,150,114,125,106,89,166,0,0,122,0,65,65,101,107,75,0,75,0,190,68,0,0,68,119,150,0,0,0,95,125,0,0,0,0,0,0,0,0,0,0,0,0,0,0,0,0,0,0,0,0,0,0,0,0,0,0,0,0],"split_type":[0,0,0,0,0,0,0,0,0,0,0,0,0,0,0,0,0,0,0,0,0,0,0,0,0,0,0,0,0,0,0,0,0,0,0,0,0,0,0,0,0,0,0,0,0,0,0,0,0,0,0,0,0,0,0,0,0,0,0,0,0,0,0,0,0,0,0,0,0,0,0,0,0,0,0,0,0,0,0,0,0],"sum_hessian":[1.024E3,5.06E2,5.18E2,3.34E2,1.72E2,3.13E2,2.05E2,2.67E2,6.7E1,1.15E2,5.7E1,2.09E2,1.04E2,6.2E1,1.43E2,2.44E2,2.3E1,1.14E2,1E0,1E0,5.6E1,2.04E2,5E0,3.2E1,7.2E1,1.7E1,4.5E1,9E0,1.34E2,2.43E2,1E0,2E1,3E0,5E0,1.09E2,2.6E1,3E1,1.42E2,6.2E1,4E0,1E0,2.3E1,9E0,2E0,7E1,4E0,1.3E1,4.2E1,3E0,2E0,7E0,1.7E1,1.17E2,2E0,1.8E1,2E0,3E0,1.08E2,1E0,8E0,1.8E1,4E0,2.6E1,1.4E2,2E0,3E0,1E0,3E0,2E1,2E0,7E0,3E0,1E0,1.2E1,1E0,2.5E1,1.7E1,1.1E1,6E0,1.6E1,1.01E2],"tree_param":{"num_deleted":"0","num_feature":"192","num_nodes":"81","size_leaf_vector":"1"}},{"base_weights":[-2.0775313E-3,9.237684E-2,-1.0676013E-1,3.5048142E-2,1.3363655E-1,-1.262056E-1,-5.715431E-2,5.6093346E-2,3.6733549E-3,1.11266196E-1,1.7253804E-1,-1.6248573E-3,-1.1566035E-1,-7.0595935E-2,2.946308E-3,1.6721782E-3,5.2272037E-2,7.517998E-2,-1.3581928E-3,1.1392629E-1,2.2028508E-2,1.5646331E-1,1.9930096E-1,-1.1723519E-1,-3.974317E-2,-4.237643E-3,-7.301441E-2,-1.0800676E-2,4.1802503E-2,4.2525094E-2,9.189808E-2,-1.9497401E-4,9.801494E-4,-1.8442124E-2,1.970301E-2,-2.0947188E-2,1.15448244E-1,-2.8298715E-2,9.856438E-2,1.5766539E-1,3.435593E-4,2.0253916E-1,3.9743728E-4,-1.2066291E-3,-9.929664E-2,-1.0950349E-4,-4.2716914E-4,5.4233745E-3,-2.1440856E-4,-3.0843705E-2,-7.4339785E-2,1.928544E-2,-2.5072258E-2,4.6316814E-4,7.358327E-5,3.7021787E-4,1.1585495E-3,1.0440256E-3,2.0999643E-4,2.7444863E-4,-2.6945875E-4,9.552632E-4,5.742926E-5,-5.673006E-5,-2.5747775E-4,1.179031E-3,4.4555558E-4,6.642441E-5,-5.3806964E-4,1.2458935E-3,2.325721E-4,1.3369952E-3,1.7127647E-3,5.060139E-4,2.0535407E-3,-1.652848E-4,-1.0070599E-3,7.608136E-5,-5.6545437E-6,1.9919194E-4,-4.851423E-4,-7.5208826E-4,-2.0012399E-4,3.2578037E-6,3.342374E-4,1.2781331E-4,-3.2446298E-4],"categories":[],"categories_nodes":[],"categories_segments":[],"categories_sizes":[],"default_left":[0,0,0,0,0,0,0,0,0,0,0,0,0,0,0,0,0,0,0,0,0,0,0,0,0,0,0,0,0,0,0,0,0,0,0,0,0,0,0,0,0,0,0,0,0,0,0,0,0,0,0,0,0,0,0,0,0,0,0,0,0,0,0,0,0,0,0,0,0,0,0,0,0,0,0,0,0,0,0,0,0,0,0,0,0,0,0],"id":16,"left_children":[1,3,5,7,9,11,13,15,17,19,21,-1,23,25,27,-1,29,31,33,35,37,39,41,43,45,47,49,51,53,55,57,-1,-1,59,61,63,65,67,69,71,-1,73,-1,-1,75,-1,-1,77,-1,79,81,83,85,-1,-1,-1,-1,-1,-1,-1,-1,-1,-1,-1,-1,-1,-1,-1,-1,-1,-1,-1,-1,-1,-1,-1,-1,-1,-1,-1,-1,-1,-1,-1,-1,-1,-1],"loss_changes":[1.0006355E1,1.2536912E0,4.557991E-1,1.4769864E-1,2.4970627E-1,1.1281538E-1,1.10883415E-1,4.816106E-2,3.2842904E-2,4.4728994E-2,1.6569853E-2,0E0,2.762103E-2,1.7665029E-2,1.4339538E-2,0E0,4.6688527E-2,1.4882758E-2,3.130687E-2,4.2035818E-2,2.975211E-2,5.4451227E-3,1.15840435E-2,4.2517185E-3,1.3159215E-4,9.472845E-4,3.7434697E-3,9.0710595E-3,7.4762665E-4,3.889142E-2,1.9971296E-2,0E0,0E0,1.946968E-2,4.0732894E-2,7.390778E-5,2.7986765E-2,4.813848E-3,2.9820018E-3,9.1314316E-4,0E0,5.43344E-3,0E0,0E0,3.9346814E-3,0E0,0E0,5.663871E-5,0E0,5.4513984E-3,3.4050345E-3,1.8655129E-3,4.322582E-3,0E0,0E0,0E0,0E0,0E0,0E0,0E0,0E0,0E0,0E0,0E0,0E0,0E0,0E0,0E0,0E0,0E0,0E0,0E0,0E0,0E0,0E0,0E0,0E0,0E0,0E0,0E0,0E0,0E0,0E0,0E0,0E0,0E0,0E0],"parents":[2147483647,0,0,1,1,2,2,3,3,4,4,5,5,6,6,7,7,8,8,9,9,10,10,12,12,13,13,14,14,16,16,17,17,18,18,19,19,20,20,21,21,22,22,23,23,24,24,25,25,26,26,27,27,28,28,29,29,30,30,33,33,34,34,35,35,36,36,37,37,38,38,39,39,41,41,44,44,47,47,49,49,50,50,51,51,52,52],"right_children":[2,4,6,8,10,12,14,16,18,20,22,-1,24,26,28,-1,30,32,34,36,38,40,42,44,46,48,50,52,54,56,58,-1,-1,60,62,64,66,68,70,72,-1,74,-1,-1,76,-1,-1,78,-1,80,82,84,86,-1,-1,-1,-1,-1,-1,-1,-1,-1,-1,-1,-1,-1,-1,-1,-1,-1,-1,-1,-1,-1,-1,-1,-1,-1,-1,-1,-1,-1,-1,-1,-1,-1,-1],"split_conditions":[-4.4217985E-2,8.920756E-2,5.9379324E-2,-5.9207585E-2,1.1881401E-1,-5.1666796E-4,-2.732292E-2,6.467484E-2,8.726795E-3,2.1697843E-2,1.9712572E-1,-1.6248573E-3,9.41315E-2,7.3964894E-4,-2.2476923E-2,1.6721782E-3,1.3053551E-1,6.881457E-2,1.6302655E-2,2.4325669E-2,-2.4096161E-2,4.029806E-2,4.9997564E-2,4.6125993E-2,8.6310655E-2,7.426643E-2,2.0599663E-3,-2.5743263E-2,1.06272936E-1,-1.03766635E-1,8.723353E-2,-1.9497401E-4,9.801494E-4,1.9603463E-2,6.10006E-2,1.01399556E-1,-2.9772775E-2,6.190179E-2,7.627539E-2,1.8389937E-2,3.435593E-4,7.0239604E-4,3.9743728E-4,-1.2066291E-3,5.7416618E-2,-1.0950349E-4,-4.2716914E-4,6.524875E-2,-2.1440856E-4,-2.4917615E-3,-3.8211964E-2,3.8079888E-2,5.974147E-2,4.6316814E-4,7.358327E-5,3.7021787E-4,1.1585495E-3,1.0440256E-3,2.0999643E-4,2.7444863E-4,-2.6945875E-4,9.552632E-4,5.742926E-5,-5.673006E-5,-2.5747775E-4,1.179031E-3,4.4555558E-4,6.642441E-5,-5.3806964E-4,1.2458935E-3,2.325721E-4,1.3369952E-3,1.7127647E-3,5.060139E-4,2.0535407E-3,-1.652848E-4,-1.0070599E-3,7.608136E-5,-5.6545437E-6,1.9919194E-4,-4.851423E-4,-7.5208826E-4,-2.0012399E-4,3.2578037E-6,3.342374E-4,1.2781331E-4,-3.2446298E-4],"split_indices":[68,172,0,68,165,81,114,82,125,125,113,0,190,175,114,0,111,65,125,159,97,187,71,92,66,65,179,114,66,104,172,0,0,117,78,65,107,75,65,125,0,188,0,0,182,0,0,65,0,73,106,74,83,0,0,0,0,0,0,0,0,0,0,0,0,0,0,0,0,0,0,0,0,0,0,0,0,0,0,0,0,0,0,0,0,0,0],"split_type":[0,0,0,0,0,0,0,0,0,0,0,0,0,0,0,0,0,0,0,0,0,0,0,0,0,0,0,0,0,0,0,0,0,0,0,0,0,0,0,0,0,0,0,0,0,0,0,0,0,0,0,0,0,0,0,0,0,0,0,0,0,0,0,0,0,0,0,0,0,0,0,0,0,0,0,0,0,0,0,0,0,0,0,0,0,0,0],"sum_hessian":[1.01E3,5.31E2,4.79E2,2.23E2,3.08E2,3.43E2,1.36E2,1.33E2,9E1,1.98E2,1.1E2,7.4E1,2.69E2,1.11E2,2.5E1,3E0,1.3E2,5E0,8.5E1,1.92E2,6E0,7.3E1,3.7E1,2.63E2,6E0,4E0,1.07E2,1.9E1,6E0,1.06E2,2.4E1,1E0,4E0,4.7E1,3.8E1,2E0,1.9E2,4E0,2E0,7.2E1,1E0,3.6E1,1E0,2.16E2,4.7E1,1E0,5E0,3E0,1E0,4E0,1.03E2,6E0,1.3E1,5E0,1E0,1E2,6E0,2E1,4E0,7E0,4E1,5E0,3.3E1,1E0,1E0,1.83E2,7E0,2E0,2E0,1E0,1E0,3E1,4.2E1,1E0,3.5E1,1E0,4.6E1,2E0,1E0,1E0,3E0,1.01E2,2E0,3E0,3E0,2E0,1.1E1],"tree_param":{"num_deleted":"0","num_feature":"192","num_nodes":"87","size_leaf_vector":"1"}},{"base_weights":[3.1924571E-3,-9.538309E-2,1.0511989E-1,-1.246508E-1,-4.4929393E-2,1.3784741E-1,4.6859134E-2,-1.1532945E-1,-1.6030531E-3,-6.795787E-2,-2.275562E-3,1.2242899E-1,1.8237957E-1,1.024181E-2,5.889985E-2,-1.1980277E-3,-9.7139366E-2,-6.923878E-2,4.4797195E-4,-2.4610067E-2,1.7102268E-2,1.252534E-1,1.0523641E-2,2.4819274E-3,1.6943207E-1,7.196423E-2,2.650051E-3,2.4305623E-2,7.019297E-2,-3.0290647E-4,-1.0029224E-1,-1.8520284E-2,-7.2139725E-2,-3.7396904E-2,7.2606667E-3,4.24433E-2,1.6074044E-3,-2.0842453E-2,1.2660268E-1,3.239216E-2,-1.3975788E-2,1.9294162E-1,1.3548507E-1,1.5441618E-4,8.223447E-4,-3.2724846E-2,2.1506244E-2,4.2277172E-2,-3.2309655E-2,6.364978E-2,1.8440089E-3,-1.5615173E-4,-1.0159529E-3,1.5577856E-4,-4.209474E-4,-3.2023384E-4,-7.403676E-4,1.9588863E-4,-4.3756922E-4,4.248929E-4,-3.6465816E-4,2.2113843E-5,4.5367956E-4,1.460093E-4,-3.203415E-4,-2.5619037E-4,-5.6446417E-5,1.2842105E-3,1.8364015E-4,3.8384585E-4,7.2074385E-5,-2.743216E-4,-3.4627815E-6,2.2069658E-3,1.2761514E-3,1.5046655E-3,8.048052E-4,-7.14859E-5,-5.42105E-4,4.1982735E-4,-1.3955857E-4,6.4749294E-4,1.3095718E-4,-4.3429172E-4,4.4057717E-5,-4.336055E-4,6.748548E-4],"categories":[],"categories_nodes":[],"categories_segments":[],"categories_sizes":[],"default_left":[0,0,0,0,0,0,0,0,0,0,0,0,0,0,0,0,0,0,0,0,0,0,0,0,0,0,0,0,0,0,0,0,0,0,0,0,0,0,0,0,0,0,0,0,0,0,0,0,0,0,0,0,0,0,0,0,0,0,0,0,0,0,0,0,0,0,0,0,0,0,0,0,0,0,0,0,0,0,0,0,0,0,0,0,0,0,0],"id":17,"left_children":[1,3,5,7,9,11,13,15,-1,17,19,21,23,25,27,-1,29,31,-1,33,35,37,39,-1,41,43,45,47,49,-1,51,53,55,57,59,61,63,65,67,69,71,73,75,-1,-1,77,79,81,83,85,-1,-1,-1,-1,-1,-1,-1,-1,-1,-1,-1,-1,-1,-1,-1,-1,-1,-1,-1,-1,-1,-1,-1,-1,-1,-1,-1,-1,-1,-1,-1,-1,-1,-1,-1,-1,-1],"loss_changes":[1.0198246E1,7.5635815E-1,9.4499874E-1,8.985758E-2,1.8745568E-1,1.9670153E-1,7.919946E-2,9.681463E-3,0E0,2.1010935E-2,2.9850895E-2,7.4537516E-2,2.6117563E-2,2.1364048E-2,5.1425993E-2,0E0,8.975744E-3,1.6761124E-2,0E0,1.3312355E-2,1.4460041E-2,4.8766136E-2,4.2030695E-3,0E0,2.9724836E-2,1.6326718E-3,2.8719299E-2,3.6977217E-2,6.448591E-2,0E0,4.3718815E-3,7.0865066E-3,6.456971E-3,9.193052E-3,1.6953643E-2,1.546979E-3,1.0958667E-2,7.317064E-5,4.330349E-2,3.2701576E-4,7.2411576E-4,4.254806E-2,1.4259994E-2,0E0,0E0,7.855309E-3,2.0917809E-2,1.6857825E-2,3.8656602E-3,4.315123E-2,0E0,0E0,0E0,0E0,0E0,0E0,0E0,0E0,0E0,0E0,0E0,0E0,0E0,0E0,0E0,0E0,0E0,0E0,0E0,0E0,0E0,0E0,0E0,0E0,0E0,0E0,0E0,0E0,0E0,0E0,0E0,0E0,0E0,0E0,0E0,0E0,0E0],"parents":[2147483647,0,0,1,1,2,2,3,3,4,4,5,5,6,6,7,7,9,9,10,10,11,11,12,12,13,13,14,14,16,16,17,17,19,19,20,20,21,21,22,22,24,24,25,25,26,26,27,27,28,28,30,30,31,31,32,32,33,33,34,34,35,35,36,36,37,37,38,38,39,39,40,40,41,41,42,42,45,45,46,46,47,47,48,48,49,49],"right_children":[2,4,6,8,10,12,14,16,-1,18,20,22,24,26,28,-1,30,32,-1,34,36,38,40,-1,42,44,46,48,50,-1,52,54,56,58,60,62,64,66,68,70,72,74,76,-1,-1,78,80,82,84,86,-1,-1,-1,-1,-1,-1,-1,-1,-1,-1,-1,-1,-1,-1,-1,-1,-1,-1,-1,-1,-1,-1,-1,-1,-1,-1,-1,-1,-1,-1,-1,-1,-1,-1,-1,-1,-1],"split_conditions":[1.6180077E-1,1.1858458E-1,-1.2315905E-1,1.9279342E-2,-2.8878836E-2,-3.9080307E-3,3.8550816E-2,4.6125993E-2,-1.6030531E-3,5.5057917E-2,7.1510067E-3,-2.7965479E-2,-5.155949E-2,1.1442754E-2,-5.2520297E-2,-1.1980277E-3,3.991384E-3,2.111148E-3,4.4797195E-4,-1.8405112E-2,9.521079E-2,-6.1369747E-2,8.076739E-2,2.4819274E-3,1.5605961E-2,-5.5387054E-2,8.170198E-3,-1.6101384E-1,1.05886534E-1,-3.0290647E-4,2.6181329E-2,-5.853954E-2,-9.7720176E-2,-7.149603E-3,7.872148E-2,7.39488E-3,-3.8317375E-2,-1.07507885E-1,1.6137004E-2,-9.266934E-2,-1.0020168E-1,-2.8876431E-2,3.809005E-3,1.5441618E-4,8.223447E-4,-8.555294E-2,9.33207E-2,-2.2466887E-2,9.036605E-2,1.1247598E-2,1.8440089E-3,-1.5615173E-4,-1.0159529E-3,1.5577856E-4,-4.209474E-4,-3.2023384E-4,-7.403676E-4,1.9588863E-4,-4.3756922E-4,4.248929E-4,-3.6465816E-4,2.2113843E-5,4.5367956E-4,1.460093E-4,-3.203415E-4,-2.5619037E-4,-5.6446417E-5,1.2842105E-3,1.8364015E-4,3.8384585E-4,7.2074385E-5,-2.743216E-4,-3.4627815E-6,2.2069658E-3,1.2761514E-3,1.5046655E-3,8.048052E-4,-7.14859E-5,-5.42105E-4,4.1982735E-4,-1.3955857E-4,6.4749294E-4,1.3095718E-4,-4.3429172E-4,4.4057717E-5,-4.336055E-4,6.748548E-4],"split_indices":[180,2,72,107,114,79,132,92,0,175,100,85,107,125,120,0,134,175,0,107,89,85,82,0,100,68,100,116,78,0,156,72,116,93,139,100,76,68,189,68,68,123,170,0,0,94,115,123,82,125,0,0,0,0,0,0,0,0,0,0,0,0,0,0,0,0,0,0,0,0,0,0,0,0,0,0,0,0,0,0,0,0,0,0,0,0,0],"split_type":[0,0,0,0,0,0,0,0,0,0,0,0,0,0,0,0,0,0,0,0,0,0,0,0,0,0,0,0,0,0,0,0,0,0,0,0,0,0,0,0,0,0,0,0,0,0,0,0,0,0,0,0,0,0,0,0,0,0,0,0,0,0,0,0,0,0,0,0,0,0,0,0,0,0,0,0,0,0,0,0,0,0,0,0,0,0,0],"sum_hessian":[1.013E3,5.15E2,4.98E2,3.25E2,1.9E2,3.18E2,1.8E2,2.61E2,6.4E1,1.23E2,6.7E1,2.39E2,7.9E1,4.5E1,1.35E2,2.05E2,5.6E1,1.22E2,1E0,3.1E1,3.6E1,2.33E2,6E0,1E1,6.9E1,4E0,4.1E1,3.4E1,1.01E2,3E0,5.3E1,7E0,1.15E2,2.2E1,9E0,1.3E1,2.3E1,2E0,2.31E2,3E0,3E0,3.8E1,3.1E1,1E0,3E0,1.4E1,2.7E1,2.6E1,8E0,9.7E1,4E0,1E0,5.2E1,3E0,4E0,6E0,1.09E2,2E0,2E1,5E0,4E0,1E0,1.2E1,1.7E1,6E0,1E0,1E0,2.27E2,4E0,2E0,1E0,1E0,2E0,2.5E1,1.3E1,2.3E1,8E0,7E0,7E0,1.7E1,1E1,1.4E1,1.2E1,6E0,2E0,3E0,9.4E1],"tree_param":{"num_deleted":"0","num_feature":"192","num_nodes":"87","size_leaf_vector":"1"}},{"base_weights":[2.0640222E-3,1.0576274E-1,-8.8535696E-2,1.3945305E-1,5.3350635E-2,-1.15385175E-1,-1.8675527E-2,1.291887E-1,1.948371E-1,2.423064E-2,7.037804E-2,-1.4323558E-1,-1.0033292E-1,-4.2693246E-2,3.7936657E-3,1.3165073E-1,4.8359722E-2,2.3269448E-1,1.6238263E-1,3.6653508E-2,-4.093815E-2,-4.361296E-4,7.26797E-2,-1.5961736E-3,-1.2552858E-3,-7.722059E-2,-1.0847748E-1,-5.7925176E-2,-1.7914513E-2,1.3956971E-3,-1.4104078E-3,-5.9223273E-3,1.3281699E-1,1.5222853E-3,-2.8946104E-2,6.465378E-4,2.3877604E-3,1.703458E-1,7.4007997E-4,1.5221025E-3,3.0156495E-2,-4.814753E-2,1.9182511E-4,6.7665055E-2,1.4253108E-1,-3.208344E-4,-7.805188E-4,-1.1149443E-1,-7.311951E-2,-1.6507866E-2,-6.257343E-2,2.2677613E-2,-3.9344456E-2,6.11018E-2,-1.0320575E-2,1.841151E-4,-2.7295E-4,1.1836481E-3,1.4787891E-3,-5.5943854E-4,-1.4612637E-5,4.9070775E-4,1.7348512E-3,-1.294928E-4,4.143774E-4,-2.2999744E-4,-5.923201E-4,7.5312913E-4,2.8719293E-4,1.77492E-3,3.675251E-4,-1.1176326E-3,-3.2358317E-4,-8.71238E-4,-4.4723682E-4,1.6887918E-4,-3.7427738E-4,-6.7015E-4,-3.1426566E-4,-6.949633E-5,4.0600274E-4,-4.6446233E-4,1.6381034E-4,-4.7807447E-5,7.817003E-4,-2.6642488E-4,1.6660342E-4],"categories":[],"categories_nodes":[],"categories_segments":[],"categories_sizes":[],"default_left":[0,0,0,0,0,0,0,0,0,0,0,0,0,0,0,0,0,0,0,0,0,0,0,0,0,0,0,0,0,0,0,0,0,0,0,0,0,0,0,0,0,0,0,0,0,0,0,0,0,0,0,0,0,0,0,0,0,0,0,0,0,0,0,0,0,0,0,0,0,0,0,0,0,0,0,0,0,0,0,0,0,0,0,0,0,0,0],"id":18,"left_children":[1,3,5,7,9,11,13,15,17,19,21,23,25,27,29,31,33,35,37,39,41,-1,43,-1,-1,45,47,49,51,-1,53,55,57,-1,59,-1,-1,61,-1,-1,63,65,-1,67,69,-1,-1,71,73,75,77,79,81,83,85,-1,-1,-1,-1,-1,-1,-1,-1,-1,-1,-1,-1,-1,-1,-1,-1,-1,-1,-1,-1,-1,-1,-1,-1,-1,-1,-1,-1,-1,-1,-1,-1],"loss_changes":[9.752056E0,8.47198E-1,1.0369883E0,1.4196253E-1,9.299976E-2,1.5331268E-1,8.380907E-2,4.3583393E-2,1.6274571E-2,5.9790507E-2,3.4653902E-2,1.9993544E-2,4.1130066E-2,2.7269393E-2,5.7430517E-2,3.9774895E-2,7.66734E-2,2.9574037E-3,6.3940287E-3,4.1207068E-2,6.1247814E-3,0E0,3.168857E-2,0E0,0E0,1.9744039E-4,1.2328863E-2,7.822901E-3,2.6988849E-2,0E0,4.4633146E-2,2.0627796E-3,3.4956932E-2,0E0,4.370425E-3,0E0,0E0,6.2429905E-4,0E0,0E0,2.9227514E-2,1.703931E-3,0E0,3.1196415E-2,1.9363537E-2,0E0,0E0,1.06573105E-4,3.2614395E-3,4.8238896E-3,3.5659224E-3,6.123147E-3,8.6758435E-3,1.16187E-2,3.127049E-2,0E0,0E0,0E0,0E0,0E0,0E0,0E0,0E0,0E0,0E0,0E0,0E0,0E0,0E0,0E0,0E0,0E0,0E0,0E0,0E0,0E0,0E0,0E0,0E0,0E0,0E0,0E0,0E0,0E0,0E0,0E0,0E0],"parents":[2147483647,0,0,1,1,2,2,3,3,4,4,5,5,6,6,7,7,8,8,9,9,10,10,11,11,12,12,13,13,14,14,15,15,16,16,17,17,18,18,19,19,20,20,22,22,25,25,26,26,27,27,28,28,30,30,31,31,32,32,34,34,37,37,40,40,41,41,43,43,44,44,47,47,48,48,49,49,50,50,51,51,52,52,53,53,54,54],"right_children":[2,4,6,8,10,12,14,16,18,20,22,24,26,28,30,32,34,36,38,40,42,-1,44,-1,-1,46,48,50,52,-1,54,56,58,-1,60,-1,-1,62,-1,-1,64,66,-1,68,70,-1,-1,72,74,76,78,80,82,84,86,-1,-1,-1,-1,-1,-1,-1,-1,-1,-1,-1,-1,-1,-1,-1,-1,-1,-1,-1,-1,-1,-1,-1,-1,-1,-1,-1,-1,-1,-1,-1,-1],"split_conditions":[-6.0943484E-2,-1.3507539E-1,1.2223253E-1,2.1024567E-1,1.0053849E-1,-2.4608746E-3,7.262161E-2,1.5496854E-2,1.2526049E-2,6.053798E-2,1.8538721E-4,-4.44483E-3,1.9141156E-2,-2.897295E-2,5.2092444E-2,2.2939015E-3,-1.0096702E-1,4.9958527E-2,1.0132654E-1,-3.6013663E-2,8.196074E-2,-4.361296E-4,-1.2642099E-1,-1.5961736E-3,-1.2552858E-3,-1.1784788E-3,6.7252284E-3,2.111148E-3,6.964694E-2,1.3956971E-3,2.2138543E-3,6.5478675E-2,1.187899E-2,1.5222853E-3,-9.266934E-2,6.465378E-4,2.3877604E-3,1.1020914E-1,7.4007997E-4,1.5221025E-3,1.28857605E-2,1.1524971E-1,1.9182511E-4,-1.04104236E-1,6.015474E-2,-3.208344E-4,-7.805188E-4,1.015678E-1,1.7479025E-3,8.284733E-2,-3.1693894E-2,6.4851664E-2,-3.3687055E-2,-6.611354E-2,-2.3508344E-2,1.841151E-4,-2.7295E-4,1.1836481E-3,1.4787891E-3,-5.5943854E-4,-1.4612637E-5,4.9070775E-4,1.7348512E-3,-1.294928E-4,4.143774E-4,-2.2999744E-4,-5.923201E-4,7.5312913E-4,2.8719293E-4,1.77492E-3,3.675251E-4,-1.1176326E-3,-3.2358317E-4,-8.71238E-4,-4.4723682E-4,1.6887918E-4,-3.7427738E-4,-6.7015E-4,-3.1426566E-4,-6.949633E-5,4.0600274E-4,-4.6446233E-4,1.6381034E-4,-4.7807447E-5,7.817003E-4,-2.6642488E-4,1.6660342E-4],"split_indices":[103,112,1,138,115,1,90,189,137,140,178,1,165,114,95,137,68,65,96,114,82,0,116,0,0,71,73,175,65,0,189,65,189,0,68,0,0,82,0,0,164,111,0,72,95,0,0,66,158,66,85,65,68,80,114,0,0,0,0,0,0,0,0,0,0,0,0,0,0,0,0,0,0,0,0,0,0,0,0,0,0,0,0,0,0,0,0],"split_type":[0,0,0,0,0,0,0,0,0,0,0,0,0,0,0,0,0,0,0,0,0,0,0,0,0,0,0,0,0,0,0,0,0,0,0,0,0,0,0,0,0,0,0,0,0,0,0,0,0,0,0,0,0,0,0,0,0,0,0,0,0,0,0,0,0,0,0,0,0,0,0,0,0,0,0,0,0,0,0,0,0,0,0,0,0,0,0],"sum_hessian":[1.036E3,4.83E2,5.53E2,2.93E2,1.9E2,3.99E2,1.54E2,2.5E2,4.3E1,7.1E1,1.19E2,1.37E2,2.62E2,7.4E1,8E1,2.42E2,8E0,1.7E1,2.6E1,6E1,1.1E1,2E0,1.17E2,6.7E1,7E1,7.1E1,1.91E2,4.5E1,2.9E1,2E0,7.8E1,2E0,2.4E2,3E0,5E0,1E0,1.6E1,2.3E1,3E0,2E0,5.8E1,1E1,1E0,1.11E2,6E0,2E0,6.9E1,1.74E2,1.7E1,5E0,4E1,1E1,1.9E1,9E0,6.9E1,1E0,1E0,1.27E2,1.13E2,2E0,3E0,1E0,2.2E1,1.2E1,4.6E1,4E0,6E0,9.2E1,1.9E1,4E0,2E0,1.73E2,1E0,1E1,7E0,2E0,3E0,3.4E1,6E0,4E0,6E0,1.7E1,2E0,2E0,7E0,4.3E1,2.6E1],"tree_param":{"num_deleted":"0","num_feature":"192","num_nodes":"87","size_leaf_vector":"1"}},{"base_weights":[4.0466427E-3,-9.503412E-2,9.720459E-2,-1.14629075E-1,-2.6217716E-2,1.3333437E-1,4.0482476E-2,-1.4313217E-1,-1.00428976E-1,-5.4863043E-2,4.048149E-8,1.15378805E-1,1.6968155E-1,1.8692914E-3,3.817564E-2,-1.5787511E-3,-1.2435097E-3,-7.949023E-2,-1.10390104E-1,-5.83394E-2,6.4691884E-4,1.5378383E-1,-7.954294E-3,1.1850797E-1,4.4582374E-2,1.5514033E-1,2.2809975E-1,5.0355524E-2,8.681791E-3,-8.0680676E-2,-1.847053E-4,-1.1083387E-3,-1.614414E-4,-2.8600601E-2,-6.5447163E-4,4.2098112E-4,1.8857762E-3,-2.7369022E-2,1.5350358E-2,1.205646E-1,9.250319E-3,7.273096E-2,-2.2860382E-2,1.3035151E-1,1.7593072E-3,3.8819335E-4,2.3645869E-1,2.471198E-3,5.7444047E-2,2.6772274E-2,-1.7396275E-2,-8.175057E-4,-3.804269E-4,-6.304264E-4,5.0069473E-5,7.070534E-4,-3.2813527E-4,-1.2225291E-4,3.8225896E-4,1.1421227E-3,1.6450693E-3,6.398658E-6,1.4777332E-4,3.8340062E-4,1.1726909E-3,-1.3493448E-5,-2.9580944E-4,1.338572E-3,3.782149E-4,2.509211E-3,8.0506224E-4,7.510507E-4,-1.476449E-4,6.6251046E-4,6.573711E-5,7.0218777E-4,1.4294131E-4,-3.5748864E-4,6.994152E-5],"categories":[],"categories_nodes":[],"categories_segments":[],"categories_sizes":[],"default_left":[0,0,0,0,0,0,0,0,0,0,0,0,0,0,0,0,0,0,0,0,0,0,0,0,0,0,0,0,0,0,0,0,0,0,0,0,0,0,0,0,0,0,0,0,0,0,0,0,0,0,0,0,0,0,0,0,0,0,0,0,0,0,0,0,0,0,0,0,0,0,0,0,0,0,0,0,0,0,0],"id":19,"left_children":[1,3,5,7,9,11,13,15,17,19,21,23,25,-1,27,-1,-1,29,31,33,-1,35,37,39,41,43,45,47,49,51,-1,-1,-1,53,-1,-1,-1,55,57,59,61,63,65,67,-1,-1,69,71,73,75,77,-1,-1,-1,-1,-1,-1,-1,-1,-1,-1,-1,-1,-1,-1,-1,-1,-1,-1,-1,-1,-1,-1,-1,-1,-1,-1,-1,-1],"loss_changes":[9.599375E0,6.7661524E-1,1.0930581E0,1.4428616E-1,8.486483E-2,1.9383335E-1,6.3807935E-2,1.5810013E-2,4.6497107E-2,2.6217327E-2,7.46181E-2,4.3896914E-2,5.4656506E-2,0E0,7.4283004E-2,0E0,0E0,4.9747825E-3,5.6130886E-3,9.331107E-3,0E0,3.719151E-3,2.6662424E-2,4.6521664E-2,2.2545254E-2,